{
    "learning_rate": 1.0,
    "layouts": [
        [
            {
                "weights": [
                    -0.0784233548995763,
                    -0.6033815444577353,
                    0.00909490890331055,
                    -0.35250678096051846,
                    -0.9587737161633927,
                    0.28808448213539894,
                    0.16068611020796975,
                    -0.15636049387901507,
                    0.8037337949787757,
                    0.8754139205526716,
                    0.34233319483620805,
                    -0.06869489180298882,
                    0.6258086556885116,
                    0.4313065134988887,
                    0.9286560452280579,
                    0.17088376928835847,
                    -0.6080474604795978,
                    0.6643327557056362,
                    0.012420743099879727,
                    0.32474376261361493,
                    0.9784043194680354,
                    0.3768759288271053,
                    0.29822736725803,
                    -0.6598713358840635,
                    -0.8042279789781026,
                    -0.37291226700439095,
                    0.896731488575492,
                    -0.07393914241725108,
                    0.5362953509691872,
                    0.5809137928087602,
                    -0.2735683249294678,
                    -0.6029755203869365,
                    0.45317718635091286,
                    0.3553831158466787,
                    -0.8385736545885403,
                    -0.73458849904363,
                    0.9203898388020779,
                    0.3021363728600144,
                    -0.2533442873710101,
                    0.7708549536921201,
                    -0.32305435291380347,
                    -0.30580006481796596,
                    -0.3637934324782215,
                    0.12604392176855828,
                    0.01647902146750102,
                    0.1405943471606741,
                    -0.9531477904167625,
                    0.7920785208077585,
                    0.7426812202221049,
                    -0.6337015712981551,
                    -0.1347795093167552,
                    0.7643997865960823,
                    0.8492196729829977,
                    -0.47708004175780383,
                    0.8593330457459885,
                    0.5996082207509355,
                    -0.5571467093219189,
                    -0.9223640343948418,
                    -0.21683622119338564,
                    0.9277983162333587,
                    -0.6425731848508467,
                    0.6621192796944468,
                    -0.49506532133453085,
                    0.9525635535583816,
                    -0.3944163348400471,
                    0.8413850032834045,
                    -0.6406685487853274
                ],
                "bias": 0.20433843849274536,
                "activation_function": "SIGMOID"
            },
            {
                "weights": [
                    -0.0784233548995763,
                    -0.6033815444577353,
                    0.00909490890331055,
                    -0.35250678096051846,
                    -0.9587737161633927,
                    0.28808448213539894,
                    0.16068611020796975,
                    -0.15636049387901507,
                    0.8037337949787757,
                    0.8754139205526716,
                    0.34233319483620805,
                    -0.06869489180298882,
                    0.6258086556885116,
                    0.4313065134988887,
                    0.9286560452280579,
                    0.17088376928835847,
                    -0.6080474604795978,
                    0.6643327557056362,
                    0.012420743099879727,
                    0.32474376261361493,
                    0.9784043194680354,
                    0.3768759288271053,
                    0.29822736725803,
                    -0.6598713358840635,
                    -0.8042279789781026,
                    -0.37291226700439095,
                    0.896731488575492,
                    -0.07393914241725108,
                    0.5362953509691872,
                    0.5809137928087602,
                    -0.2735683249294678,
                    -0.6029755203869365,
                    0.45317718635091286,
                    0.3553831158466787,
                    -0.8385736545885403,
                    -0.73458849904363,
                    0.9203898388020779,
                    0.3021363728600144,
                    -0.2533442873710101,
                    0.7708549536921201,
                    -0.32305435291380347,
                    -0.30580006481796596,
                    -0.3637934324782215,
                    0.12604392176855828,
                    0.01647902146750102,
                    0.1405943471606741,
                    -0.9531477904167625,
                    0.7920785208077585,
                    0.7426812202221049,
                    -0.6337015712981551,
                    -0.1347795093167552,
                    0.7643997865960823,
                    0.8492196729829977,
                    -0.47708004175780383,
                    0.8593330457459885,
                    0.5996082207509355,
                    -0.5571467093219189,
                    -0.9223640343948418,
                    -0.21683622119338564,
                    0.9277983162333587,
                    -0.6425731848508467,
                    0.6621192796944468,
                    -0.49506532133453085,
                    0.9525635535583816,
                    -0.3944163348400471,
                    0.8413850032834045,
                    -0.6406685487853274
                ],
                "bias": 0.20433843849274536,
                "activation_function": "SIGMOID"
            },
            {
                "weights": [
                    0.4562515905535125,
                    -0.8210189495581344,
                    -0.9211793202032141,
                    0.9008831862878752,
                    0.18094300719680745,
                    0.9050595155429475,
                    0.585317070604241,
                    0.6028913231931337,
                    -0.024073922264802983,
                    0.7113463592826352,
                    -0.3920505318039329,
                    -0.1278070979721062,
                    -0.8979132988108836,
                    0.9281009008011887,
                    -0.09466384607631317,
                    -0.20975492007092256,
                    0.66870544964218,
                    -0.8803093730973848,
                    -0.8149501676706721,
                    0.554593322174942,
                    -0.1600235126419689,
                    0.2399293157637361,
                    -0.5840962824287725,
                    0.2999505972909131,
                    0.22957475947455142,
                    0.1735298397835534,
                    0.5434334903860196,
                    0.35200141522710027,
                    -0.3617571739708014,
                    -0.03637708860366673,
                    -0.05924252032676902,
                    0.558208450388618,
                    -0.49612965472250514,
                    0.744712692130385,
                    0.9490750712916725,
                    0.6671305573414392,
                    -0.7927431509545804,
                    -0.4613160230993556,
                    0.3145047190573891,
                    0.9725421070062648,
                    -0.4041241362467074,
                    -0.2189070517415843,
                    0.43610337492924756,
                    0.9220671182580003,
                    -0.4551655548775728,
                    -0.9013489168216064,
                    -0.485426142697742,
                    -0.9501196089061517,
                    0.6357794374002879,
                    0.8723342852160585,
                    0.5927331270735514,
                    0.639375291014894,
                    0.998866134828414,
                    0.02261451794995817,
                    -0.7619716548213489,
                    -0.6905462564742808,
                    -0.016126759042907723,
                    -0.38180161456007755,
                    0.5054816283096744,
                    -0.3866885349454383,
                    0.871972567340767,
                    -0.07591553483792546,
                    0.4712428360406,
                    -0.4915835681556231,
                    -0.6321464585612568,
                    0.8073872551971251,
                    0.8299846051845181
                ],
                "bias": -0.3537852137132873,
                "activation_function": "SIGMOID"
            },
            {
                "weights": [
                    0.21672624499073745,
                    -0.9013021727805914,
                    -0.2107143980194115,
                    -0.5224496484475423,
                    -0.4075662040704171,
                    -0.7097910000359586,
                    -0.731029546222447,
                    -0.6156287471880568,
                    0.8801956562317419,
                    -0.2374475893291248,
                    0.23168413929404275,
                    0.4411504274384803,
                    0.6122654661658982,
                    0.4245807032316722,
                    0.1956191978665076,
                    0.1612210308735429,
                    0.1815169461545818,
                    0.40589347073331883,
                    -0.7004462011251149,
                    0.8018315575972954,
                    0.08323585919762944,
                    0.44263043950468517,
                    -0.8271294764300765,
                    0.3558778917539145,
                    0.16975934736378195,
                    0.27904270639640205,
                    -0.14771422882848761,
                    0.8074093542194811,
                    0.687087009862551,
                    -0.6909269794638926,
                    0.19062541297014635,
                    0.11986544591735693,
                    -0.544000850715769,
                    0.8096027128997825,
                    -0.4928230621495737,
                    0.6931734604465847,
                    -0.9584087162037,
                    0.847402418047926,
                    -0.7589878350772239,
                    -0.005125971050735867,
                    -0.9651237979240075,
                    -0.23493407751634754,
                    0.06027331396160185,
                    -0.09628578878330818,
                    -0.7602302957068001,
                    0.17901046072233062,
                    -0.708632156500657,
                    -0.002031024667338066,
                    -0.6634903908392122,
                    -0.36023153624329884,
                    0.7751240226443183,
                    -0.9432157727039789,
                    -0.13746396054200005,
                    -0.9949998914506308,
                    -0.8503120298405182,
                    -0.9543662158751256,
                    -0.9397403473754935,
                    -0.024154545694783147,
                    -0.8767408609915721,
                    0.8506579121544224,
                    0.9231596459830407,
                    0.23105609496380208,
                    -0.16799153424472046,
                    0.8619784792521672,
                    0.28639790790852393,
                    0.4432622848441756,
                    -0.6628384796622819
                ],
                "bias": 0.3187482148216816,
                "activation_function": "SIGMOID"
            }
        ],
        [
            {
                "weights": [
                    -0.2518376977811585,
                    -0.09527873365289996,
                    -0.5480682261127474,
                    -0.4325816644793272
                ],
                "bias": 0.5403859299341967,
                "activation_function": "SIGMOID"
            },
            {
                "weights": [
                    -0.2518376977811585,
                    -0.09527873365289996,
                    -0.5480682261127474,
                    -0.4325816644793272
                ],
                "bias": 0.5403859299341967,
                "activation_function": "SIGMOID"
            },
            {
                "weights": [
                    -0.5143087835987366,
                    -0.5250077146913392,
                    0.9425141946807498,
                    0.8614504502766198
                ],
                "bias": 0.03673185418831104,
                "activation_function": "SIGMOID"
            },
            {
                "weights": [
                    -0.5644800590173702,
                    -0.9807658916425646,
                    0.001561439045791202,
                    0.8931210950329169
                ],
                "bias": 0.912627441917462,
                "activation_function": "SIGMOID"
            },
            {
                "weights": [
                    0.45796352570980026,
                    -0.5197764724447822,
                    -0.2890359105073186,
                    0.6234434146265149
                ],
                "bias": -0.04633748901537893,
                "activation_function": "SIGMOID"
            }
        ],
        [
            {
                "weights": [
                    -0.759273808574872,
                    0.10492707168326598,
                    -0.9067147386414403,
                    0.21650955981964493,
                    -0.7124313966026095
                ],
                "bias": 0.840600019873228,
                "activation_function": "SIGMOID"
            },
            {
                "weights": [
                    -0.759273808574872,
                    0.10492707168326598,
                    -0.9067147386414403,
                    0.21650955981964493,
                    -0.7124313966026095
                ],
                "bias": 0.840600019873228,
                "activation_function": "SIGMOID"
            },
            {
                "weights": [
                    -0.29437097673248624,
                    -0.8905658703509391,
                    0.49864253979337825,
                    -0.7733436186728406,
                    0.9052712952695616
                ],
                "bias": 0.1970565138421163,
                "activation_function": "SIGMOID"
            },
            {
                "weights": [
                    -0.43685144307379375,
                    0.016359988119042157,
                    -0.20809494704859044,
                    0.278644889310385,
                    0.30902799091430544
                ],
                "bias": 0.9923528777313753,
                "activation_function": "SIGMOID"
            },
            {
                "weights": [
                    0.8954054726440714,
                    -0.889040978437067,
                    0.8077536547995858,
                    -0.0005613684578944511,
                    -0.26373349152586756
                ],
                "bias": -0.07031887400849679,
                "activation_function": "SIGMOID"
            }
        ],
        [
            {
                "weights": [
                    -0.5959000410003572,
                    -0.8058466331954361,
                    -0.9375233784892052,
                    0.017164107350362334,
                    -0.06019500670498168
                ],
                "bias": 0.10193205900719371,
                "activation_function": "SIGMOID"
            },
            {
                "weights": [
                    -0.5959000410003572,
                    -0.8058466331954361,
                    -0.9375233784892052,
                    0.017164107350362334,
                    -0.06019500670498168
                ],
                "bias": 0.10193205900719371,
                "activation_function": "SIGMOID"
            },
            {
                "weights": [
                    0.4053518825161173,
                    0.7142622762251429,
                    -0.38968058990149346,
                    -0.6065774067198761,
                    -0.9642562979046081
                ],
                "bias": 0.7280847097375747,
                "activation_function": "SIGMOID"
            },
            {
                "weights": [
                    0.7308108928913852,
                    0.3906738345532612,
                    0.7006408374173629,
                    0.48899208699189156,
                    0.8753523900545555
                ],
                "bias": -0.3451798356833853,
                "activation_function": "SIGMOID"
            },
            {
                "weights": [
                    0.45346377575762387,
                    0.2629630936787746,
                    0.015266340854165117,
                    -0.4244165262886186,
                    0.9973343754725972
                ],
                "bias": -0.49763045681007223,
                "activation_function": "SIGMOID"
            }
        ],
        [
            {
                "weights": [
                    0.03622608136261474,
                    0.7347767704112653,
                    0.7196448079831175,
                    -0.3738829038456344,
                    0.8365311370246491
                ],
                "bias": 0.5180545640366998,
                "activation_function": "SIGMOID"
            },
            {
                "weights": [
                    0.03622608136261474,
                    0.7347767704112653,
                    0.7196448079831175,
                    -0.3738829038456344,
                    0.8365311370246491
                ],
                "bias": 0.5180545640366998,
                "activation_function": "SIGMOID"
            },
            {
                "weights": [
                    -0.7729185595430845,
                    0.4786317807171232,
                    -0.8469227758829749,
                    0.9594051399847678,
                    -0.699348186527396
                ],
                "bias": 0.5997290896066159,
                "activation_function": "SIGMOID"
            },
            {
                "weights": [
                    -0.34096369382414826,
                    -0.6578628055851845,
                    0.04012946261370809,
                    -0.3222492279750597,
                    0.1934755103356518
                ],
                "bias": 0.19683913915707696,
                "activation_function": "SIGMOID"
            },
            {
                "weights": [
                    0.5462849040558235,
                    -0.3925488619623301,
                    -0.4145391135803633,
                    -0.6862288781692429,
                    -0.2686627297310129
                ],
                "bias": 0.019015282944499612,
                "activation_function": "SIGMOID"
            }
        ],
        [
            {
                "weights": [
                    0.8118934197942569,
                    -0.6605700948596773,
                    -0.385049461652164,
                    -0.3208266234549797,
                    -0.02980559033446495
                ],
                "bias": -0.6331794257685324,
                "activation_function": "HEAVYSIDE"
            },
            {
                "weights": [
                    0.8118934197942569,
                    -0.6605700948596773,
                    -0.385049461652164,
                    -0.3208266234549797,
                    -0.02980559033446495
                ],
                "bias": -0.6331794257685324,
                "activation_function": "HEAVYSIDE"
            },
            {
                "weights": [
                    -0.840475303903317,
                    0.9919167243960401,
                    0.8585838385083893,
                    -0.08038581785185861,
                    -0.9025664506156523
                ],
                "bias": 0.3085805120110017,
                "activation_function": "HEAVYSIDE"
            },
            {
                "weights": [
                    0.3237874679722741,
                    0.7511766990360647,
                    0.432303856515057,
                    0.21238737263973007,
                    -0.022200154700331654
                ],
                "bias": 0.7671370056251607,
                "activation_function": "HEAVYSIDE"
            },
            {
                "weights": [
                    -0.9583313767737351,
                    0.794251054377809,
                    -0.30717637705004597,
                    0.32697945667153183,
                    -0.5614531103096865
                ],
                "bias": -0.6865779566323216,
                "activation_function": "HEAVYSIDE"
            },
            {
                "weights": [
                    -0.7282279088331469,
                    0.11828867587430403,
                    0.4143790821358748,
                    -0.13042436649374523,
                    -0.6538593597137252
                ],
                "bias": -0.3545415906888274,
                "activation_function": "HEAVYSIDE"
            }
        ]
    ]
}