{
    "learning_rate": 0.01,
    "layouts": [
        [
            {
                "weights": [
                    -0.6132474448627825,
                    0.06536842070374305,
                    0.7952587591859184,
                    0.26911725604033343,
                    0.6836054009418828,
                    -0.6425623315932891,
                    -0.3857998185457583,
                    -0.853931912986909,
                    0.039630148637866514,
                    -0.17835140405535932,
                    0.449859761947482,
                    -0.9270107940040058,
                    0.3219899486973268,
                    -0.2177703869639247,
                    -0.7120447531551073,
                    -0.10579701873959269,
                    -0.6082865130937603,
                    0.9463763846570514,
                    0.5328804409158623,
                    -0.5758851545468526,
                    -0.9228628654611719,
                    0.7893091212793053,
                    0.5933533345773072,
                    0.9215145751607521,
                    0.510810181363424,
                    -0.15393505569494348,
                    -0.2684113357067619,
                    -0.3389679993211956,
                    -0.30154863005248855,
                    0.11860815664382152,
                    0.5577029581072601,
                    0.06640595832964724,
                    -0.23238409381897562,
                    -0.13655956632956312,
                    -0.11262563850514273,
                    0.24510287297807776,
                    0.8515786778904546,
                    0.4181679113911432,
                    0.9474131445253264,
                    -0.037409506717190455,
                    -0.427061889313159,
                    -0.5773628037116751,
                    -0.27411622569929883,
                    0.6829940503331446,
                    -0.11000141777638417,
                    0.8793805615480677,
                    -0.5283802907334261,
                    0.6144419768194218,
                    0.46136140203464215,
                    -0.37915652876922823,
                    0.31651543838588103,
                    0.5602929706998216,
                    0.23099338137620373,
                    0.8251539696824894,
                    -0.2982812530121761,
                    -0.6287974288421627,
                    0.5798497853602014,
                    -0.4094253210987202,
                    -0.4435673425226154,
                    0.19283204722644043,
                    -0.4617619311694654,
                    -0.43162819398061747,
                    -0.3615620940245019,
                    0.9168251179868945,
                    0.44696136141242326,
                    0.5832504318849556,
                    0.3424870083973106
                ],
                "bias": -0.09234647618649694,
                "activation_function": "SIGMOID"
            },
            {
                "weights": [
                    0.819019372541786,
                    -0.6510950707158871,
                    0.012194442083336421,
                    0.9140393088044236,
                    0.18635383724855892,
                    -0.5679723136044563,
                    -0.047352898255060616,
                    0.10071884557182731,
                    -0.590705509935203,
                    -0.8767439729686557,
                    0.206556552054191,
                    0.4961399437016554,
                    -0.8880521859866108,
                    0.7162338490801559,
                    0.7897730718994707,
                    0.40657884729030913,
                    0.08177457725501713,
                    0.2286888310073154,
                    -0.02540175293780811,
                    0.2710694655562018,
                    -0.9750769391825029,
                    0.9331316511781893,
                    -0.41710260309231106,
                    0.3482765462382855,
                    0.04797795784988801,
                    0.5146018969964268,
                    -0.5382314605041862,
                    0.998780906377392,
                    -0.9711650456293615,
                    -0.05073356127668638,
                    0.7604225471319164,
                    0.10117126024666989,
                    -0.6321512055707774,
                    -0.5681555625798147,
                    0.17394843757599587,
                    0.2036600369885484,
                    0.47155140841738064,
                    0.33643208957576687,
                    -0.15771392561389241,
                    0.8060106172756605,
                    -0.052943419162556404,
                    0.17885602799518718,
                    -0.848664675493841,
                    0.4182264856734761,
                    -0.7575625418039973,
                    -0.3369816203538365,
                    0.5909924109794944,
                    0.36718785353782457,
                    -0.781081456527478,
                    0.6316001473010346,
                    0.3541629409993692,
                    0.318705451849691,
                    0.3278814455133703,
                    0.9386793660260198,
                    0.5852361351718864,
                    -0.7085972642586178,
                    0.5676615280785426,
                    -0.2572603938756777,
                    -0.8228645652253266,
                    0.270008425352402,
                    0.7253090784575968,
                    0.3787134106632333,
                    -0.29013151676566906,
                    -0.3502812044953094,
                    0.166545915167583,
                    -0.6454782198367408,
                    -0.7875626960396411
                ],
                "bias": 0.9895845335631948,
                "activation_function": "SIGMOID"
            },
            {
                "weights": [
                    0.06733417030212951,
                    0.23953114331538683,
                    0.1649249559674042,
                    -0.70033005860841,
                    0.7925998337781412,
                    -0.20960457479467087,
                    -0.40116674970414956,
                    -0.9566510367694947,
                    0.4275100056178931,
                    -0.4409427395633214,
                    0.5549337035261193,
                    0.1356797328012509,
                    -0.10233267468945395,
                    -0.2115152953225976,
                    0.536419608953491,
                    0.9627077252093912,
                    0.2559121267592017,
                    0.23370437572689662,
                    0.3165015694900506,
                    0.1549904654512968,
                    0.158233703993236,
                    0.5701099802986545,
                    0.6607447632188423,
                    0.5005167853895827,
                    -0.707513693489032,
                    0.44875938986664976,
                    0.5541711909313658,
                    0.9693053641866012,
                    0.40777426583309895,
                    -0.5356484957502357,
                    0.11241990936445045,
                    -0.8364484116296422,
                    0.5938165523663659,
                    0.9334713172200111,
                    0.4379006373377312,
                    0.24069331513282677,
                    0.17874863256560003,
                    -0.32938182669109684,
                    -0.3006823645580885,
                    -0.50198696271949,
                    -0.4460095580616985,
                    -0.9344345328208084,
                    -0.5170028486621538,
                    0.14892096642618013,
                    0.40528151739156915,
                    0.14288298095335805,
                    0.3351365148789689,
                    0.8663230011574212,
                    -0.7752947085069082,
                    -0.2813464415720264,
                    -0.37360165443979154,
                    -0.9138982294854181,
                    -0.9526014677680843,
                    0.02832593237433456,
                    -0.03689442530447162,
                    0.554639739345123,
                    0.3951113415052887,
                    0.13106398707325506,
                    -0.6636408096733175,
                    0.09737110680754713,
                    -0.7861063104787018,
                    0.42116004301626075,
                    -0.9575359580017355,
                    0.12180435256700406,
                    -0.722242976625219,
                    -0.29836561293144603,
                    0.6644238093398849
                ],
                "bias": 0.975466495733843,
                "activation_function": "SIGMOID"
            },
            {
                "weights": [
                    -0.11262164664574792,
                    -0.10418898508423413,
                    0.3350140789488798,
                    0.3649633540565702,
                    -0.7516334427318621,
                    0.7216455968573119,
                    0.17105202791322793,
                    -0.985904276536467,
                    -0.07700573429974544,
                    -0.6915079828533806,
                    -0.1456319214745494,
                    0.04841649235037693,
                    0.1487073455707557,
                    -0.8227271712536777,
                    -0.39309191712889513,
                    -0.21746237830778092,
                    -0.667590153527895,
                    -0.9586265168747787,
                    0.4702008094334056,
                    0.7280895866098829,
                    0.8864715446680644,
                    -0.6599144636810788,
                    -0.5572706242226566,
                    0.2172615732411054,
                    0.29194446459124923,
                    0.43923184835829,
                    -0.8321892968062228,
                    -0.41971624670961427,
                    0.7029847185717726,
                    -0.44386981513809554,
                    -0.6405763819809771,
                    -0.5271462196233665,
                    0.029623729174725666,
                    0.13364107627579314,
                    0.8764492483151158,
                    -0.5347051178953892,
                    -0.5495154385443797,
                    -0.7443091361495251,
                    0.33134733648795867,
                    0.21740901447044503,
                    0.40766509702726483,
                    -0.3299436786932275,
                    0.9117061048222774,
                    0.7071339801000338,
                    -0.059448293915687955,
                    -0.1118644409860392,
                    0.8195015359512627,
                    -0.9616762102991903,
                    -0.5745707398858777,
                    0.7077141857189229,
                    -0.8984103928643237,
                    -0.6392513843527854,
                    -0.7102082314063622,
                    -0.8476074083371028,
                    0.6135289627426819,
                    0.0698497314334452,
                    -0.888380125944594,
                    0.9247344019388197,
                    -0.7635475627765502,
                    0.6351024822222844,
                    -0.8075361624399549,
                    -0.9282175805411732,
                    -0.8605407140960735,
                    0.7320638376285711,
                    -0.6846663257924863,
                    -0.14020561185408242,
                    0.08442228490612047
                ],
                "bias": 0.7153307606824404,
                "activation_function": "SIGMOID"
            }
        ],
        [
            {
                "weights": [
                    -1.306683419231625,
                    -0.002559493848079949,
                    -1.140144403278393,
                    -0.9168050289452973
                ],
                "bias": -1.4685522613523698,
                "activation_function": "SIGMOID"
            },
            {
                "weights": [
                    -1.302891340759613,
                    0.0008923837357018937,
                    -1.1530226072322185,
                    -0.9183298694237585
                ],
                "bias": -1.4584791756849935,
                "activation_function": "SIGMOID"
            },
            {
                "weights": [
                    -1.045622389403161,
                    -0.5067295629158198,
                    -1.2690119634405355,
                    -0.717499158294677
                ],
                "bias": -1.4704466953663173,
                "activation_function": "SIGMOID"
            },
            {
                "weights": [
                    -1.5336395488275834,
                    0.06675171277080687,
                    -1.84140243954063,
                    -0.4148739147306919
                ],
                "bias": -0.7260133180030508,
                "activation_function": "SIGMOID"
            },
            {
                "weights": [
                    -1.9792328058662028,
                    0.0005044294018352188,
                    -2.1947949281321697,
                    -1.1811732453911896
                ],
                "bias": -2.115156266350741,
                "activation_function": "SIGMOID"
            },
            {
                "weights": [
                    -1.9832419363042655,
                    -0.0026341682845232193,
                    -2.192613744968301,
                    -1.1832835495533176
                ],
                "bias": -2.1141541543229243,
                "activation_function": "SIGMOID"
            }
        ]
    ]
}