{
    "learning_rate": 0.01,
    "layouts": [
        [
            {
                "weights": [
                    1.5192150519932865,
                    -0.08233631306389047,
                    1.0832025065913704,
                    2.2382382620319454,
                    1.6251595896799222,
                    1.5898244643255366,
                    1.3541163542598078,
                    1.8276020531441441,
                    0.6301583737154512,
                    0.7622591757766644,
                    0.6630427837459533,
                    1.929436791576416,
                    0.33010595375400764,
                    2.133982770418012,
                    1.1118733908662468,
                    0.911253662201596,
                    0.5548206320331451,
                    -1.957858100597327,
                    1.6095092971189526,
                    -0.3527537907561652,
                    1.737153291939714,
                    2.3756574536518813,
                    0.7635828826969635,
                    1.9719832708951477,
                    1.3647890066519552,
                    1.4283298071814865,
                    -0.0027299668652612814,
                    0.49816320888427323,
                    0.5827915845574231,
                    1.7717675297592355,
                    -0.07734487222002982,
                    -0.1498657583278774,
                    1.072518526437405,
                    -0.054274245459089425,
                    -0.01806788326346586,
                    0.4820652580312073,
                    0.3682079329361785,
                    1.3451246527248109,
                    1.4004188566175473,
                    0.24974015094940188,
                    1.027197019786279,
                    -2.3755965795965497,
                    -0.4617825707321276,
                    0.45985978386154497,
                    0.7001024896738174,
                    0.8822187793917345,
                    0.8655683776334014,
                    0.586408129952078,
                    -1.7771646222359048,
                    0.5413826796804583,
                    -0.7748119496801642,
                    0.2189168547978563,
                    0.188069784126888,
                    0.2913214497579959,
                    1.8066507050481095,
                    1.1238283213162827,
                    2.3911960680726563,
                    0.452406230196364,
                    0.4907424960733564,
                    0.45944119939771727,
                    1.6261678720062578,
                    0.19419056488532938,
                    0.9493716355678297,
                    2.1733259505626914,
                    -28.25307618188133,
                    -0.0021747837890798917,
                    0.11834090186986995
                ],
                "bias": 2.5298339811452273,
                "activation_function": "SIGMOID"
            },
            {
                "weights": [
                    0.8757066836336167,
                    2.537588512637373,
                    1.4233753747801372,
                    1.774984116282062,
                    1.1967136489635752,
                    2.7913936620350936,
                    0.4877955042172281,
                    1.2841049388285126,
                    0.9026725052355814,
                    1.9601137821260108,
                    5.320338519016501,
                    -0.6258972417863768,
                    3.946825246464405,
                    3.1285343186110235,
                    -2.4322880698992533,
                    0.23883178485570677,
                    4.569230255250588,
                    1.7059658676771416,
                    3.969077924300861,
                    0.35668157660633265,
                    -0.01259277204094264,
                    0.6367705208579489,
                    0.944521102321727,
                    0.8575311852539095,
                    2.7415302898926743,
                    -3.3711561361989943,
                    -3.262979235781385,
                    1.285372313244884,
                    -3.036338817229365,
                    0.22332122821905023,
                    0.010168080645344952,
                    0.015197929107635828,
                    1.883119304492447,
                    -0.42410138283738424,
                    -0.5973537639067321,
                    0.763677517926391,
                    1.2471212543670085,
                    3.7748445099854124,
                    1.8278386004731886,
                    -0.7544965230965114,
                    -1.206092145963994,
                    0.7208881096307465,
                    -1.6257828072543576,
                    3.3147791496185275,
                    -1.7185426994809634,
                    -1.6237220668429853,
                    -3.6279426952815634,
                    4.606864204497967,
                    -1.5808592722955248,
                    2.1280128722481746,
                    -0.11650330988160247,
                    -0.9999087669947881,
                    -2.864643596951739,
                    -0.785701502726793,
                    -4.0548473967929,
                    -2.2723649402109913,
                    3.0762570520349093,
                    -4.577439908410272,
                    2.2562818605942234,
                    0.6955639279340851,
                    -0.8622585036821092,
                    0.2725799838947396,
                    -1.2322619157971584,
                    4.417896926993434,
                    7.6434133267615785,
                    0.2839532369001794,
                    -0.7136733051236962
                ],
                "bias": -1.8250903415605073,
                "activation_function": "SIGMOID"
            },
            {
                "weights": [
                    -1.4656807629029813,
                    -1.9314682728320156,
                    -0.7708963260654262,
                    1.0887789814638509,
                    -1.2528340527169264,
                    2.864418943683311,
                    -3.0129209469189857,
                    -0.5374254219683272,
                    -0.4523532169527035,
                    -1.1748624260630764,
                    0.25572419625796416,
                    0.8769867073903755,
                    -1.0199864709015318,
                    0.42300866185231417,
                    -3.4985429813598103,
                    -2.5356641209496185,
                    0.5668539751877258,
                    -1.789831092578001,
                    2.3120395507987,
                    -0.3778707045246132,
                    1.2537124089888374,
                    -1.8999800847054755,
                    0.19225652460497317,
                    0.9652082480508797,
                    1.0783948657368334,
                    0.22689255500861727,
                    -0.30116129794055413,
                    1.2457013289666277,
                    -3.6682077553028645,
                    -0.6744717228178171,
                    -3.647180139316941,
                    -0.2909153018693258,
                    1.3276155804328689,
                    -0.8813109800740202,
                    1.706255448301052,
                    0.22058571519062303,
                    -0.8639226081465927,
                    -0.11642942387191418,
                    -2.145853438186148,
                    1.545011651367339,
                    0.2870274062315986,
                    -0.21231193519453548,
                    0.5381999015564636,
                    -0.46457032540370713,
                    1.3468394058994806,
                    2.3615208197227875,
                    -3.149857392171886,
                    -0.5832557681830164,
                    0.6594131755287382,
                    0.9217951097105012,
                    -1.829185960105432,
                    -2.5668826140123113,
                    -1.8684608277738148,
                    0.26385646501956767,
                    -1.3476516338079818,
                    -2.0115281830980782,
                    1.8591791442520837,
                    -0.1844436961356647,
                    -1.5070024665209354,
                    0.39340025970491993,
                    0.2965495257756547,
                    -0.8571630243054729,
                    -2.12278003388256,
                    -1.5810129653214355,
                    6.182332680429047,
                    -0.03175914624086338,
                    -0.8460322040340446
                ],
                "bias": -0.19079288129895344,
                "activation_function": "SIGMOID"
            },
            {
                "weights": [
                    2.436719900340793,
                    -1.5389297068094705,
                    0.08147544268904033,
                    -0.18034971685517368,
                    -0.2596244865327131,
                    -2.3143008034129995,
                    -1.7659880266152097,
                    -0.7030714130106228,
                    -1.8634371174304396,
                    -0.3261105371942837,
                    0.8358223065119003,
                    2.134577921047722,
                    -1.1615876748271765,
                    -2.228313873102241,
                    -2.2771185959785254,
                    -0.13926529193217144,
                    -1.6942033445547882,
                    -3.304356795751502,
                    1.5000085658035018,
                    1.9153416910695225,
                    1.4125276550513322,
                    -0.8804281143486113,
                    -0.9209751564437964,
                    0.004510365239842394,
                    -0.7310955417860162,
                    1.6110087410281282,
                    -0.4340239399353131,
                    0.6636322647521948,
                    1.7801879159036411,
                    0.013270602246628812,
                    -0.24520148951225057,
                    -2.0683708602711497,
                    2.82171807940625,
                    -0.9340908283263588,
                    1.172242738305252,
                    -0.20279636946261234,
                    -1.6659197835680177,
                    -0.27945144158680735,
                    -0.640479644438269,
                    -1.3815251497328027,
                    -0.4938991275192372,
                    -1.629489652204497,
                    -0.2180969940010121,
                    -0.23661946420688393,
                    1.069226290667249,
                    0.20509303399613277,
                    -0.44224692125333154,
                    -1.590213803168973,
                    1.2635820809784988,
                    -0.34577538576182754,
                    0.37663575469589305,
                    -0.699588208737298,
                    2.8547277084076623,
                    -2.818185015185417,
                    -2.7704337791449087,
                    -0.0752487279646311,
                    0.5552075752772693,
                    -0.8426994013904696,
                    1.1297246077911873,
                    0.6023297467211444,
                    1.0938131325899831,
                    -1.940886518599738,
                    -0.4173905161110585,
                    -0.10053676320224088,
                    2.135492992481889,
                    -0.32658737112336256,
                    0.45662341015060326
                ],
                "bias": -0.18004359445803328,
                "activation_function": "SIGMOID"
            },
            {
                "weights": [
                    -1.661525985537063,
                    -2.503737686755688,
                    0.45762970359106414,
                    -0.46253959762517854,
                    -0.8876955256656403,
                    2.1935461665316924,
                    -0.8420560396679956,
                    0.002933186975782938,
                    -0.650121539344049,
                    0.7933034387226977,
                    0.10814410052095329,
                    1.9571187023643406,
                    2.6462386665138857,
                    3.8634331605482237,
                    -2.2923232125075472,
                    4.20873342037897,
                    0.3877815025721212,
                    2.0455181221466905,
                    1.198522513835798,
                    0.16323966068752419,
                    -0.018723408524694073,
                    1.3412297363562613,
                    1.3023338958228998,
                    0.19099469994662321,
                    1.1801125451802699,
                    0.08356386864929115,
                    -1.0470868989604782,
                    1.2025386507216307,
                    0.993670166109274,
                    0.5274899848861963,
                    1.3080877429698758,
                    0.053323338799050005,
                    -2.9181265132441108,
                    -1.3171489051960437,
                    1.543955149998825,
                    0.9342981866277075,
                    2.9993371409062664,
                    2.234390948986679,
                    0.2339267185244138,
                    -2.5258700049637395,
                    -0.42082365845708763,
                    0.9721893746251467,
                    -0.3406171622929407,
                    1.2937779172237598,
                    -0.06864687346886487,
                    -0.7392080373906454,
                    0.4306069447147758,
                    -1.8187176381645884,
                    -1.8514268393260205,
                    1.2929153684727752,
                    1.205667142232869,
                    -0.347248643865676,
                    -1.8677795242507094,
                    1.7085944026866815,
                    -1.728055513492685,
                    -1.4635012094747841,
                    -0.6258159044045187,
                    -0.8551473748849627,
                    -0.6269313271403673,
                    -1.1188547934206983,
                    -1.9206227914698755,
                    -0.0008900254692852562,
                    0.15300650480109101,
                    0.43074610327572815,
                    -8.983624283254837,
                    -0.6742335624599963,
                    1.041495457989635
                ],
                "bias": 1.43095588976775,
                "activation_function": "SIGMOID"
            },
            {
                "weights": [
                    1.5047401631835748,
                    1.54412808354138,
                    0.7320534889895037,
                    2.2443336199485193,
                    -1.021004584896822,
                    0.5390473644908855,
                    -2.053005484578571,
                    0.4276328000511594,
                    3.6085515499894023,
                    0.32655358789003264,
                    1.124437865074284,
                    0.41564508928831595,
                    1.2503241160737544,
                    -0.5022489992543169,
                    0.1914667573880539,
                    1.014336304971751,
                    0.07120945643271115,
                    -0.9377604235105734,
                    -3.1716333449144374,
                    -2.6130741988864266,
                    -2.282803349881511,
                    2.189853980500154,
                    -0.8405740951795287,
                    0.5504273624849078,
                    1.568648268902027,
                    1.923697546757091,
                    0.8450355100424531,
                    0.29406344340398094,
                    1.8412321990898977,
                    -1.4304267129044568,
                    -2.394003798250395,
                    -1.2031476137894475,
                    -0.5674266306439243,
                    -0.6901534793404203,
                    -0.23419478794255932,
                    0.6181111817156117,
                    0.7859461902151784,
                    -1.1878907664104543,
                    -2.4887120770574445,
                    -2.6042067189105156,
                    -0.2830197666016374,
                    -0.46609609211513137,
                    0.3120072257411532,
                    -1.175295038131339,
                    0.803916607675756,
                    1.4895607295492692,
                    0.6315275663193777,
                    -0.22805482841623118,
                    1.319181434154771,
                    -2.187698379283782,
                    -0.10105393628332379,
                    -0.44977126596027467,
                    -1.6066479859816527,
                    -2.287069849210222,
                    -2.020568959141776,
                    -1.7939420439546427,
                    -0.601375222386444,
                    -0.44483436559469874,
                    0.627467812217467,
                    0.33428730478812396,
                    -0.36721028939125,
                    1.3802216133443541,
                    1.1217400510508828,
                    -0.04741994385055204,
                    5.021657219400227,
                    -0.5270601790527422,
                    -0.6637970583230153
                ],
                "bias": 0.7671261488451933,
                "activation_function": "SIGMOID"
            },
            {
                "weights": [
                    1.8655680948747515,
                    0.528188866793919,
                    -1.2927479452861104,
                    -2.8911537740972526,
                    -0.7547588073056635,
                    0.433385511103339,
                    0.25080345549691446,
                    1.5353229702620506,
                    0.533331753947605,
                    -3.0639684689619666,
                    -2.225869008693418,
                    -3.2183502461201168,
                    3.1789943000902037,
                    -2.4883423364544983,
                    0.01778416058712214,
                    2.8250689216394256,
                    -0.28094840504927926,
                    -1.942431704322091,
                    -3.3216396867579534,
                    1.4877853488375878,
                    0.9481297435479145,
                    2.1440730317589387,
                    -1.2108703388974313,
                    -3.490519538567439,
                    1.8149820191944632,
                    -1.2444310621554584,
                    -3.4347601359207274,
                    1.4820497409220037,
                    1.6774577096765304,
                    -2.9659407027275035,
                    -1.4160594226813195,
                    -0.32806105995997303,
                    1.360711903888745,
                    0.6959962155961685,
                    1.7350815089339888,
                    0.033378532676017265,
                    -0.5153831585456369,
                    -0.8817697966199712,
                    -0.06408138631790884,
                    -0.5755913672981731,
                    -3.143374063031551,
                    2.1162122386407933,
                    2.240512469848298,
                    -0.10959517206593385,
                    -3.9288940799169465,
                    -1.0675953567785685,
                    -1.9018207872215458,
                    2.290628018631485,
                    -1.6969861434488172,
                    -1.783706297710492,
                    4.997781199990995,
                    2.193544733492319,
                    -2.8567984143996292,
                    0.20456040173757561,
                    0.25101636007373535,
                    1.6495497115286977,
                    2.3959091232364513,
                    -2.4893213977500435,
                    -0.19240570269867985,
                    1.5936563659379566,
                    0.5054964188690091,
                    2.532162703421208,
                    2.553100322843821,
                    -2.6530015945499326,
                    -3.6983215192796117,
                    -4.082496569196367,
                    -1.083674828439594
                ],
                "bias": 1.6076511774547875,
                "activation_function": "SIGMOID"
            },
            {
                "weights": [
                    0.07305279635561715,
                    -1.0990205359241771,
                    1.1069127753911374,
                    -2.5022317010069606,
                    -3.016120809929793,
                    -1.2858775784355232,
                    -1.8902393534607556,
                    -1.702280402989461,
                    -0.08186170807103818,
                    2.1668555246338888,
                    0.1081958372040183,
                    1.4246938641028546,
                    1.8087117195517128,
                    -0.26411476839627507,
                    1.2380121014332806,
                    -0.11058005826900603,
                    0.3945967433406841,
                    0.2233251905512476,
                    0.9962302155782344,
                    -0.5233602564953035,
                    -0.539748021520552,
                    0.47590679324820373,
                    0.8571753125784133,
                    -0.864240780682278,
                    2.110210309169037,
                    -0.6702120112959047,
                    -3.4939135836031388,
                    0.23765889691434539,
                    -0.17435021325209782,
                    -1.4292435617992405,
                    -1.2347393088356398,
                    -0.024094188580088816,
                    0.18037213124537677,
                    1.151407923130591,
                    1.297832790839365,
                    -0.8852592010730118,
                    0.06856922913856452,
                    0.8993056121788561,
                    -0.734244604618403,
                    -2.0016382586431356,
                    -2.8312427140397345,
                    0.11868222336785057,
                    3.1398693793194066,
                    -0.09471855577989216,
                    -1.4268840497564905,
                    -2.095384084793242,
                    -2.3889119321452874,
                    -1.2607956700352336,
                    2.2813063120321093,
                    -1.1491189008051204,
                    0.08164618062005806,
                    -0.6286351374459002,
                    -1.2502282239111062,
                    0.7394287253013989,
                    -0.5223516061691951,
                    0.6723259046282274,
                    0.39565925105899585,
                    0.6198174078355865,
                    -0.20274638958018454,
                    -0.7845579395190471,
                    2.1144372873753925,
                    0.7868651594482386,
                    -2.4217399520973437,
                    -2.8111111384705247,
                    4.885857569074927,
                    1.1574375604667377,
                    0.7019141876640449
                ],
                "bias": 0.7431086875715981,
                "activation_function": "SIGMOID"
            }
        ],
        [
            {
                "weights": [
                    -0.813465822347947,
                    -4.087624938383482,
                    1.4390044406347788,
                    3.3472184835790038,
                    4.950743809395733,
                    -4.213022040280687,
                    0.7347502347797048,
                    -5.668861978718306
                ],
                "bias": -0.6415040335003281,
                "activation_function": "SIGMOID"
            },
            {
                "weights": [
                    -6.126294801426414,
                    4.079113925300943,
                    -4.019825593447742,
                    -0.103371104831679,
                    -2.8043093397138334,
                    2.9844988486454884,
                    -1.6349563440021646,
                    3.244891445572486
                ],
                "bias": 0.8542673675178716,
                "activation_function": "SIGMOID"
            },
            {
                "weights": [
                    -4.917729019482293,
                    -1.8693746442047547,
                    8.764488582852774,
                    3.523166636414965,
                    -1.456348122619088,
                    -0.12248684275672675,
                    -2.448190555135315,
                    0.16936048667382214
                ],
                "bias": 0.5271608959831712,
                "activation_function": "SIGMOID"
            },
            {
                "weights": [
                    3.851360775267769,
                    2.044974125277524,
                    -1.6517945106597227,
                    -0.838190806357894,
                    2.386048672001869,
                    -4.282270300444703,
                    3.5045600060548705,
                    0.19215655904547813
                ],
                "bias": -2.3537682854705757,
                "activation_function": "SIGMOID"
            },
            {
                "weights": [
                    0.7201628563093632,
                    2.120383612793977,
                    -4.071980043966889,
                    -3.823838142046323,
                    3.043053032103239,
                    0.5987896387156905,
                    0.4889218859692254,
                    -2.007449399821578
                ],
                "bias": -0.7941091680435726,
                "activation_function": "SIGMOID"
            },
            {
                "weights": [
                    0.25277658580694795,
                    -5.428962841778361,
                    -0.5368441329513017,
                    4.192830640353431,
                    -2.3670819729506216,
                    -3.830423882660775,
                    -3.06730947327599,
                    -0.6856443714063881
                ],
                "bias": 1.5023440745550662,
                "activation_function": "SIGMOID"
            },
            {
                "weights": [
                    -6.15672377413399,
                    -4.34832932742436,
                    4.1060699267763985,
                    3.86344826936576,
                    1.5391680686271374,
                    -2.8835900056006536,
                    6.636706195326986,
                    -2.808084680347914
                ],
                "bias": -1.4950211209489292,
                "activation_function": "SIGMOID"
            },
            {
                "weights": [
                    1.3188785949816566,
                    -1.9356710830610895,
                    1.174128338509473,
                    1.4827040614298255,
                    -0.034309505795099636,
                    1.5960017146090297,
                    -0.3701208988547272,
                    2.0769288531179884
                ],
                "bias": 0.7452330927178834,
                "activation_function": "SIGMOID"
            }
        ],
        [
            {
                "weights": [
                    5.078348484113672,
                    -5.91422026285932,
                    -3.6559181462008796,
                    1.801360874471791,
                    0.8354371729791483,
                    3.488831305798633,
                    1.9141429848759284,
                    -0.6331605796060038
                ],
                "bias": -0.775922483898565,
                "activation_function": "SIGMOID"
            },
            {
                "weights": [
                    0.17264232015477896,
                    1.932413726337641,
                    1.9907226585396463,
                    -0.6125560526612228,
                    -2.292845145138955,
                    -4.629067394603236,
                    2.5962770096513355,
                    -0.23807027972654027
                ],
                "bias": -1.3342305098580427,
                "activation_function": "SIGMOID"
            },
            {
                "weights": [
                    -3.493827263613982,
                    0.12572413789554043,
                    -4.321002395995753,
                    7.488227780982319,
                    5.3472739447753375,
                    -3.3777658675538467,
                    -5.482277976378932,
                    -2.3479029283196047
                ],
                "bias": 2.055666841662494,
                "activation_function": "SIGMOID"
            },
            {
                "weights": [
                    2.0384472059106806,
                    -0.9934618256100354,
                    -1.1792873647835922,
                    0.9033083683820551,
                    1.890985847621241,
                    0.9875490118071951,
                    0.33174839628613817,
                    2.1713863789578114
                ],
                "bias": 1.0677660001567442,
                "activation_function": "SIGMOID"
            },
            {
                "weights": [
                    -1.4396223436009246,
                    3.0415752597339503,
                    2.6675273237392756,
                    -1.555815367938586,
                    -3.5314978611317183,
                    -0.27336304023273594,
                    3.5562598033601938,
                    0.41635914270638646
                ],
                "bias": -0.864610679243928,
                "activation_function": "SIGMOID"
            },
            {
                "weights": [
                    -3.284720154603965,
                    0.9050344283898827,
                    -1.3135399288788225,
                    -0.474161479409401,
                    2.301248450597145,
                    -1.2599320216027436,
                    -3.182936160110187,
                    2.429542403638105
                ],
                "bias": 0.3700086491526437,
                "activation_function": "SIGMOID"
            },
            {
                "weights": [
                    -3.6592511358106408,
                    4.184207966046116,
                    3.352124410309011,
                    1.2149638007029107,
                    1.0115861810195388,
                    -0.7280424841149222,
                    -4.650792613364598,
                    0.9601151779645574
                ],
                "bias": 2.5585904719833064,
                "activation_function": "SIGMOID"
            },
            {
                "weights": [
                    3.832103120903395,
                    -6.082562886895362,
                    -4.933763587067666,
                    2.545842731245473,
                    1.5935678715341144,
                    1.231810302362797,
                    0.7867229996215573,
                    0.2721158249274389
                ],
                "bias": -1.4345592519460608,
                "activation_function": "SIGMOID"
            }
        ],
        [
            {
                "weights": [
                    0.5703325824435491,
                    0.8391007613641502,
                    -0.14301171233286408,
                    0.5090464504553807,
                    1.1939998128801235,
                    0.39581070509420774,
                    0.488610218491671,
                    1.5671029768890752
                ],
                "bias": 1.7969776338964973,
                "activation_function": "SIGMOID"
            },
            {
                "weights": [
                    2.7450964341457786,
                    1.9369093720537993,
                    -3.998606119187597,
                    0.36912451608380853,
                    2.1639875877353916,
                    1.5717309329727904,
                    -1.3636183014568288,
                    4.378343734677104
                ],
                "bias": 0.23830455892231475,
                "activation_function": "SIGMOID"
            },
            {
                "weights": [
                    3.753519947031675,
                    -2.9294274789223147,
                    0.7766003652358299,
                    2.379312852291987,
                    -4.1413237557925955,
                    1.5926278233799447,
                    -2.900727373721269,
                    4.592417430720387
                ],
                "bias": -1.264566828155083,
                "activation_function": "SIGMOID"
            },
            {
                "weights": [
                    0.9760389151019333,
                    -0.42048862658642727,
                    -0.7170666700612851,
                    -0.22845011770066428,
                    1.883414763047476,
                    0.045717727696612434,
                    0.8467147965617201,
                    1.7648663350492417
                ],
                "bias": 0.12355169203412386,
                "activation_function": "SIGMOID"
            },
            {
                "weights": [
                    6.165201291778219,
                    4.686843181181335,
                    -5.911527252639145,
                    -0.5652255046895374,
                    2.100899726923366,
                    3.2471628500312075,
                    -4.060525489725193,
                    4.529065302725432
                ],
                "bias": 0.13917626359439803,
                "activation_function": "SIGMOID"
            },
            {
                "weights": [
                    -2.6668448064180703,
                    1.7182918581082245,
                    5.844465570292385,
                    -1.6587452538454546,
                    0.663867947067486,
                    2.5847732560330545,
                    2.6949772850088363,
                    -2.246245116641453
                ],
                "bias": -1.044421881469513,
                "activation_function": "SIGMOID"
            }
        ],
        [
            {
                "weights": [
                    -2.772598308711917,
                    1.4739538678682962,
                    5.19622488253952,
                    -2.968040935279541,
                    0.904597668801208,
                    1.8777919023246183
                ],
                "bias": -3.6969680493066814,
                "activation_function": "SIGMOID"
            },
            {
                "weights": [
                    -0.632793454557802,
                    2.075738550018322,
                    -5.270654318685958,
                    -3.0899378651498837,
                    0.9552369132619132,
                    1.5793829180126393
                ],
                "bias": -1.0123484884851812,
                "activation_function": "SIGMOID"
            },
            {
                "weights": [
                    -1.081677115631417,
                    2.3339464330599045,
                    -0.2505931106901431,
                    0.8705634035925008,
                    -0.8492135141087442,
                    -3.838688450634891
                ],
                "bias": -0.8902638677015922,
                "activation_function": "SIGMOID"
            },
            {
                "weights": [
                    1.367690457186843,
                    0.5473708529044938,
                    -0.22625084626348316,
                    1.5588051660075195,
                    -4.454284597979794,
                    -4.230954269462318
                ],
                "bias": 1.3952511668710879,
                "activation_function": "SIGMOID"
            },
            {
                "weights": [
                    -0.5326933602876864,
                    -2.243672587750721,
                    -4.839516489905601,
                    -0.35223944165918636,
                    1.728208427854182,
                    1.7531289838244843
                ],
                "bias": -0.3269764290998295,
                "activation_function": "SIGMOID"
            },
            {
                "weights": [
                    -2.4223904869662567,
                    -2.215470117436826,
                    5.273495979178339,
                    -1.4984744568461605,
                    1.8787609687749098,
                    1.859369683843823
                ],
                "bias": -2.820392644926643,
                "activation_function": "SIGMOID"
            }
        ]
    ]
}