{
    "learning_rate": 0.01,
    "layouts": [
        [
            {
                "weights": [
                    2.6206921133908536,
                    0.743073967099664,
                    -0.2788978323687234,
                    1.5299985742516093,
                    0.22602627618261983,
                    2.306700631749851,
                    1.446993777841688,
                    3.935105213069302,
                    0.20842658935387834,
                    1.3399413013289794,
                    -1.1471926832399644,
                    2.0355883836615303,
                    -1.276440686427867,
                    1.6346005422209744,
                    -0.8107488469473508,
                    2.224971739425594,
                    -1.0862300454230205,
                    -2.5933009710461894,
                    0.8876409755684977,
                    0.6231653152238122,
                    2.657933477782488,
                    1.7828289084169062,
                    0.3840960082530293,
                    -0.40746127034062224,
                    3.0577324810271422,
                    1.2474713380622362,
                    0.2766192787494739,
                    -0.25115777327045236,
                    1.5397831107021818,
                    1.496613374188303,
                    -0.41589706113614033,
                    1.3795264153465863,
                    0.9671837735646219,
                    2.347736263461307,
                    -0.5156784751796465,
                    1.2805769592272283,
                    0.0925313375764283,
                    2.193174632390389,
                    2.209712366121301,
                    1.0718332335219531,
                    0.8107124327914906,
                    -0.7055266828595681,
                    -1.6457281971642226,
                    -0.16913041795754155,
                    1.0146620294986282,
                    -1.2220085088396653,
                    -0.08539677385493256,
                    0.36166781678470794,
                    -2.2273757088419357,
                    0.09035478155881542,
                    -0.3273505186100858,
                    1.5782904255377874,
                    0.003200717495986008,
                    1.0576614681653334,
                    2.389441516876398,
                    -0.21656346661908812,
                    4.065299322928493,
                    1.1146581266073696,
                    0.09846806406379745,
                    -0.5626014941892157,
                    -0.5634676244207124,
                    2.1438657048979226,
                    0.814587837048624,
                    3.191141650014352,
                    -33.79430247163435,
                    0.10723367776092681,
                    0.10403390488573849
                ],
                "bias": 7.507345111673892,
                "activation_function": "SIGMOID"
            },
            {
                "weights": [
                    -0.05887049058597786,
                    3.122217152790822,
                    3.2029778394420494,
                    1.8990685006881323,
                    1.8258477550676593,
                    2.6380556116101186,
                    0.10934960070772466,
                    -0.006817909134287266,
                    1.0888539147046605,
                    2.78366106384994,
                    4.5618738054190295,
                    0.42123839265149665,
                    4.121174528395246,
                    3.593790497637147,
                    -2.9971680341461493,
                    -1.0163062157771072,
                    4.611113510036726,
                    1.4209140452898796,
                    4.873335551441138,
                    1.6685579936380437,
                    0.5947118198760211,
                    0.6986688954357747,
                    0.6393306997282737,
                    0.7967027895981519,
                    3.23860620507627,
                    -3.139030769962815,
                    -2.8819081968467066,
                    1.7388635342924332,
                    -3.0328592326654573,
                    1.0294789264160966,
                    -0.32794885471833335,
                    -0.5609622411882613,
                    2.934031302579742,
                    -1.3679469918748755,
                    -0.546492570272757,
                    2.7646883684791894,
                    1.00453031262476,
                    3.200928046717464,
                    0.5526895573227297,
                    -0.20634256451032373,
                    -1.256878881399379,
                    1.121670762265757,
                    -3.1166366261713208,
                    3.2872274414887377,
                    -1.826671572458651,
                    -1.3788799028092413,
                    -4.743703022275103,
                    4.217799377639425,
                    -1.594566952630685,
                    2.435191047861164,
                    -1.3615464455269095,
                    -1.3521421844489827,
                    -2.2173174257248807,
                    -0.5599553323966918,
                    -4.930577624153956,
                    -3.1484752695941935,
                    3.459304708452395,
                    -4.576537744494813,
                    2.6609606698012938,
                    1.2304224901258003,
                    -0.10283798089990363,
                    0.8774909236619605,
                    -1.430186208541108,
                    5.714522419277425,
                    9.240259965597092,
                    1.1986474386604025,
                    -1.1334421704362168
                ],
                "bias": -2.2400983609354688,
                "activation_function": "SIGMOID"
            },
            {
                "weights": [
                    -1.2402434389215662,
                    -2.200436719157637,
                    -0.5928165281237945,
                    1.3322000492113786,
                    -0.8425084126869751,
                    2.5886035034008836,
                    -2.335359807325811,
                    -0.6549584357061741,
                    -0.04938499580012642,
                    -0.8821289321515686,
                    0.5405443399359321,
                    0.5811183745851072,
                    -0.6752740596743705,
                    0.2528798959464287,
                    -3.610849397059127,
                    -2.685233017723513,
                    0.8672148795695487,
                    -2.769084218710489,
                    2.6423467743163256,
                    -0.06515132762871625,
                    1.7834645874989867,
                    -1.6906534265600959,
                    0.6140607260408439,
                    0.5868650134261526,
                    1.4470536645190983,
                    0.24982421723204223,
                    -0.4953748835547893,
                    1.2918297123070146,
                    -3.495298214660535,
                    -0.6207740279738662,
                    -3.792708445083916,
                    -0.5512008501904015,
                    1.3943333375117608,
                    -0.9251202340324344,
                    1.9019346026911332,
                    -0.004855354697994418,
                    -0.2521538396453176,
                    0.2187377962691021,
                    -1.9502110610059338,
                    1.440356377514081,
                    0.32714786719664674,
                    -0.4357080590067561,
                    0.6369839374075466,
                    -0.7561693155046426,
                    1.1518265327250654,
                    2.5089245017414497,
                    -3.2906584089828366,
                    -0.82983903546805,
                    0.5260363172983165,
                    1.1410676754957239,
                    -1.5636168170455542,
                    -2.4831625699283237,
                    -2.257471110450793,
                    0.05756508857323337,
                    -1.1816885908479016,
                    -2.312614248438446,
                    2.2496194681205566,
                    -0.10614591698394821,
                    -1.8377161626081269,
                    -0.09875609562453552,
                    0.2774693641466942,
                    -0.194475135571665,
                    -2.049947905787513,
                    -1.5938564991751916,
                    6.2262838668874565,
                    0.3899371588209632,
                    -1.0469940094233285
                ],
                "bias": -0.2117501569800416,
                "activation_function": "SIGMOID"
            },
            {
                "weights": [
                    3.534603262262797,
                    -3.430504437788158,
                    -0.22599609493634534,
                    -0.722962286580045,
                    -0.026994578322124797,
                    -2.2557624678730046,
                    -2.25793249717229,
                    -0.7226286209888013,
                    -3.2153522798005176,
                    -0.6971175325065004,
                    -0.4111888844814372,
                    3.115179174121858,
                    -2.3373439800038573,
                    -1.9950130505688153,
                    -3.705845080764762,
                    -1.8458392352724027,
                    -1.1957833400403926,
                    -3.582988002555895,
                    -0.21199629105321008,
                    2.20189591143935,
                    0.19063681334360405,
                    -1.0305565713647182,
                    0.8736552948083743,
                    -0.36859817930359523,
                    -0.19234769497922205,
                    1.6502892838924708,
                    -2.308263445939149,
                    -0.6248845035515196,
                    4.453112919471426,
                    1.3856086886743664,
                    0.4282162569448357,
                    -2.3274368680951967,
                    3.7752043613138517,
                    1.0320239479992168,
                    0.6644201617922564,
                    0.16960746407582183,
                    -2.3232917966507425,
                    0.6969998057307188,
                    -0.12783781755837584,
                    -3.9652072144781414,
                    -0.5402421393520531,
                    -0.270619633466071,
                    -0.13019116228365918,
                    -0.2503854702351615,
                    0.6471621525912854,
                    -1.2060808232141715,
                    -2.0321374745331173,
                    -4.8532410410287,
                    2.298098558569846,
                    -0.4128984263602076,
                    1.916963049230982,
                    -0.18270109692300204,
                    4.316508631863357,
                    -3.6384454551616527,
                    -4.62897959610442,
                    -1.3400374134370068,
                    -1.0333925597213613,
                    -1.0525503306918986,
                    -0.9292971966914125,
                    2.597343791478581,
                    0.20342295321823503,
                    -2.2508002162888325,
                    -2.451478696414249,
                    -0.4935122061010469,
                    5.668651006969721,
                    -0.4242074338913517,
                    0.6892041739804018
                ],
                "bias": -0.17262532975257708,
                "activation_function": "SIGMOID"
            },
            {
                "weights": [
                    -1.7624167044972134,
                    -2.419223961414963,
                    0.36306840529294354,
                    -0.5102498432844662,
                    -0.9449474116727615,
                    2.122845720961625,
                    -0.8553124023814233,
                    -0.4102308384295719,
                    -0.6790524112987086,
                    0.7349469069675145,
                    0.20047007609998727,
                    1.947586078370299,
                    2.477790549254191,
                    3.6297623028628174,
                    -2.388571558636227,
                    4.338179510277213,
                    0.32254558305772096,
                    2.236257939313251,
                    1.2473367364432506,
                    0.2108474278066936,
                    -0.16471075230651178,
                    1.8395812765971522,
                    1.1778984010181135,
                    0.19102391061291946,
                    1.1800867423298442,
                    0.09603179510671149,
                    -1.1150101431274515,
                    1.6806893843695954,
                    0.838756117024084,
                    0.5372547556815311,
                    1.1796136631880878,
                    0.058394300994551604,
                    -2.944418208292002,
                    -1.2159758219659116,
                    1.378868312319163,
                    0.9563669133787677,
                    3.1421629753278655,
                    2.203418539988907,
                    0.061096330312441716,
                    -2.3431341982025344,
                    -0.31485418605087323,
                    0.9419721078341272,
                    -0.11885807992716808,
                    1.203070612871635,
                    -0.11454997053130005,
                    -0.7418086224774406,
                    0.5389373471853284,
                    -1.7117540904887028,
                    -1.7089452675649808,
                    1.2690386241494755,
                    1.1961145248783125,
                    -0.3558913724579694,
                    -2.046366330322204,
                    1.6069373919043703,
                    -1.5481571081981536,
                    -1.6707209599243802,
                    -0.6588057318013015,
                    -0.7355968668240956,
                    -0.8760120326275853,
                    -1.1561368348134535,
                    -1.860500211080811,
                    0.06697892657316315,
                    0.6134003718139712,
                    0.5314598573918956,
                    -9.021658854375747,
                    -0.5181268166417019,
                    1.1397062720242834
                ],
                "bias": 1.3967691190611347,
                "activation_function": "SIGMOID"
            },
            {
                "weights": [
                    1.730041237280026,
                    1.7035885047191273,
                    1.340999365208762,
                    4.1458722138860615,
                    -1.985354505394914,
                    0.29987552103929604,
                    -1.9373948264539438,
                    1.2236664736320737,
                    3.137513398526946,
                    0.16954436123488636,
                    2.241161580293652,
                    -0.5436191560746413,
                    1.2878391020129873,
                    0.047491291986592535,
                    -0.7857347856415781,
                    0.5288950904818889,
                    -1.3590676321795954,
                    -0.9467547284661264,
                    -2.6884150426737228,
                    -1.9135945123028282,
                    -3.447665859908792,
                    2.6456583554472055,
                    -1.2704137880140256,
                    1.330735766496847,
                    1.613098887779214,
                    1.7229999028157805,
                    -0.29019923895061117,
                    -0.426023251481988,
                    1.0864946565118176,
                    -3.1243131076080326,
                    -1.9794608311455058,
                    0.8786100409203087,
                    -0.02518040576443239,
                    0.29659129997746914,
                    -0.366110610281477,
                    1.1387077959069036,
                    1.913580076091185,
                    -1.4096999972830735,
                    -3.363502732813563,
                    -2.9145998576244985,
                    0.25980282766580004,
                    0.6515305906946846,
                    0.8833050093903092,
                    -1.5423773472248223,
                    0.29684556969596587,
                    3.0479592415827037,
                    1.3468065580718378,
                    1.1523855971776995,
                    1.6989769671734347,
                    -3.0227169615453016,
                    1.2546816836030505,
                    -0.295798982622518,
                    -1.5357781732024516,
                    -2.699760742836225,
                    -2.5594528723949646,
                    -2.202294849259802,
                    -1.5998949121528665,
                    -2.1495013490810555,
                    1.182145665723458,
                    0.19420722438674434,
                    -1.2990809976000683,
                    2.282515521599725,
                    1.6148870756662543,
                    0.4700299752460562,
                    6.032682322602195,
                    0.44777910743206223,
                    -1.1529303660118029
                ],
                "bias": 0.7778832776666377,
                "activation_function": "SIGMOID"
            },
            {
                "weights": [
                    1.8509467667940016,
                    0.4428979044559395,
                    -1.4890357166033086,
                    -2.9153342766307144,
                    -0.6932685014729429,
                    0.19034256144315168,
                    0.87996139129335,
                    1.2333700613441214,
                    0.6245805513049946,
                    -3.154108402199326,
                    -1.8997686716363578,
                    -3.1727449683682036,
                    3.221003064294429,
                    -2.425448633484563,
                    0.20922935169256834,
                    2.925374393317032,
                    -0.1827873415019191,
                    -1.8851547103442554,
                    -3.265248204536258,
                    1.6669936181801381,
                    0.9450828330611448,
                    2.034329476957317,
                    -0.6343385816787368,
                    -3.674042163756949,
                    1.8557599163032352,
                    -1.4504038869361626,
                    -3.3727969264892486,
                    1.3889265300703355,
                    1.7313648592447455,
                    -2.7715915163823603,
                    -1.4764811974180823,
                    -0.2698098186041968,
                    1.3822542108987736,
                    0.7264789664302856,
                    1.6272254319449815,
                    -0.010922019417593562,
                    -0.5225560107208245,
                    -1.0656024197519791,
                    0.06035420585450703,
                    -0.629077129943326,
                    -3.2119643783414356,
                    1.9182538309869512,
                    1.9180678112965024,
                    -0.4704745880730918,
                    -4.334549586526623,
                    -0.9464805469025097,
                    -1.8053390978552672,
                    2.6511413880658714,
                    -1.7041653501246365,
                    -1.9482683355796124,
                    4.8195021946563585,
                    2.3821038179726814,
                    -2.7047225370018495,
                    0.2544875536336017,
                    -0.023594502858012508,
                    1.4300320847408132,
                    2.4797108332351065,
                    -2.4494892977122347,
                    -0.7182066416996875,
                    1.4457623721567483,
                    0.4515412489604947,
                    2.7857724667201516,
                    2.687664043399652,
                    -2.5430571211449644,
                    -3.730637362344852,
                    -4.174064306905444,
                    -0.8977230127656074
                ],
                "bias": 1.673475026019237,
                "activation_function": "SIGMOID"
            },
            {
                "weights": [
                    0.1320951824056835,
                    -1.3955171791945808,
                    1.082815867596287,
                    -2.3190542153180487,
                    -2.965304790411724,
                    -1.3373095994351774,
                    -2.1067733373655524,
                    -1.9397449398574924,
                    -0.11400707466336253,
                    2.171217064632451,
                    0.10494900221825253,
                    1.4229573712121524,
                    1.6439893735986006,
                    -0.23759639151868825,
                    0.974307167053443,
                    -0.11461727516192351,
                    0.4515595327844995,
                    0.16099329151134972,
                    1.2459165180071,
                    -0.633942909344902,
                    -0.5030133329051061,
                    0.20294645838307807,
                    1.0244680109319122,
                    -0.7800022114383598,
                    2.1070052646064275,
                    -0.5389318152517721,
                    -3.5562058394668674,
                    0.5965274684848136,
                    -0.11292862242687596,
                    -1.448073100124663,
                    -1.5067753570500837,
                    -0.10271693816045709,
                    0.20656020917614065,
                    0.666614082029865,
                    1.5690572060312078,
                    -0.8560751920034128,
                    0.05407463900691097,
                    0.855440661556432,
                    -0.6405224831193543,
                    -2.2966775907835566,
                    -2.676305293750571,
                    0.1933802157040837,
                    3.674776438751207,
                    0.22666494540933294,
                    -1.2591907976216097,
                    -2.2758883732864326,
                    -2.3727055291591648,
                    -1.0986924263088118,
                    2.283429258110671,
                    -0.9914803920267088,
                    -0.08648206092726837,
                    -0.49542218129437926,
                    -1.0308287591969687,
                    0.7783080714967094,
                    -0.41295549249305824,
                    0.7652547051335239,
                    0.3724616339659645,
                    0.4723388824626625,
                    -0.2116771487813782,
                    -0.9716231737120968,
                    2.150151636456115,
                    0.8278859282012712,
                    -2.6040163270673933,
                    -2.9068642975629606,
                    4.927845583345351,
                    0.8219219054712997,
                    0.8035101721580179
                ],
                "bias": 0.7126596590765416,
                "activation_function": "SIGMOID"
            }
        ],
        [
            {
                "weights": [
                    -1.271459089008062,
                    -5.010725439456706,
                    1.9418028219061172,
                    2.48024759043572,
                    6.24976235119776,
                    -5.524320641334073,
                    0.16512273570132013,
                    -5.6502326695449
                ],
                "bias": 0.5461428132154225,
                "activation_function": "SIGMOID"
            },
            {
                "weights": [
                    -8.217761707083119,
                    5.97741107636021,
                    -6.613693060587103,
                    0.23363586771978948,
                    -4.543212825307516,
                    3.1126648363338267,
                    -2.5223379666629264,
                    3.744118328060501
                ],
                "bias": 1.5578939665429399,
                "activation_function": "SIGMOID"
            },
            {
                "weights": [
                    -5.939451868229088,
                    -1.2846042090678726,
                    9.224331736949765,
                    4.601081601108721,
                    -1.0831362874502473,
                    0.1403923506188512,
                    -2.7605954755323694,
                    0.7650433989195814
                ],
                "bias": 1.3801783838373094,
                "activation_function": "SIGMOID"
            },
            {
                "weights": [
                    2.7320266868675027,
                    0.689860993356502,
                    -2.660729234860542,
                    -2.3438749148887803,
                    4.270729414330096,
                    -5.341975788239132,
                    3.1309641522763054,
                    1.543540767032189
                ],
                "bias": -1.8172741021979395,
                "activation_function": "SIGMOID"
            },
            {
                "weights": [
                    0.9376367914081052,
                    3.9505456331396216,
                    -4.987557925022559,
                    -3.820249055516419,
                    3.5615393614626925,
                    0.6738558468910335,
                    1.5249832529407252,
                    -5.349883176259174
                ],
                "bias": 0.06417320631908914,
                "activation_function": "SIGMOID"
            },
            {
                "weights": [
                    0.4159380710780502,
                    -6.96105314577785,
                    -3.8002122792581177,
                    4.930201508911658,
                    -3.30075370943006,
                    -4.722002825136229,
                    -2.970656651498845,
                    -0.43420291498388963
                ],
                "bias": 1.4030677597292087,
                "activation_function": "SIGMOID"
            },
            {
                "weights": [
                    -5.911039893257335,
                    -6.021566870959675,
                    5.12108421822386,
                    5.550633574496605,
                    3.2977450514512623,
                    -2.8484276798713286,
                    6.753169508553351,
                    -3.911967973358554
                ],
                "bias": 0.2571032541115327,
                "activation_function": "SIGMOID"
            },
            {
                "weights": [
                    1.610415054925102,
                    -1.7379891694904317,
                    1.2482374485837366,
                    1.6279464765463414,
                    0.33340467193160406,
                    1.4975661677312835,
                    -0.2870300744487293,
                    2.182809024200472
                ],
                "bias": 1.1545732059640725,
                "activation_function": "SIGMOID"
            }
        ],
        [
            {
                "weights": [
                    6.5323217667960725,
                    -6.3846006863692875,
                    -3.94980658619222,
                    2.096329517684405,
                    0.5733136032710734,
                    4.405921639259225,
                    1.8928591959422252,
                    -1.0116199655446152
                ],
                "bias": -1.081216989041981,
                "activation_function": "SIGMOID"
            },
            {
                "weights": [
                    -0.6213953500452473,
                    3.0388588333741486,
                    2.440002357543746,
                    -4.346200886450924,
                    -4.833019143803648,
                    -4.479701012462205,
                    2.4329316297567463,
                    0.028828538350420457
                ],
                "bias": -1.2938224301436396,
                "activation_function": "SIGMOID"
            },
            {
                "weights": [
                    -3.0962095595381047,
                    0.22581816040286326,
                    -5.19672168710958,
                    9.601413747886713,
                    6.456946791200711,
                    -2.167075665187415,
                    -6.0557318415492185,
                    -1.8494126979508974
                ],
                "bias": 2.4413835097496883,
                "activation_function": "SIGMOID"
            },
            {
                "weights": [
                    1.9383733277211252,
                    -0.6490745159077109,
                    -1.487146350494399,
                    0.7867294046899588,
                    2.1756435687268256,
                    0.8533763222781299,
                    0.12241272397978747,
                    1.9702300572157485
                ],
                "bias": 0.8657562243250971,
                "activation_function": "SIGMOID"
            },
            {
                "weights": [
                    -1.2787781259718891,
                    2.7892854681219323,
                    4.556237669442611,
                    -1.7194504582036962,
                    -3.3914255243845695,
                    0.057774723928341765,
                    6.171173316056073,
                    0.23565213185108522
                ],
                "bias": -0.9961067634007714,
                "activation_function": "SIGMOID"
            },
            {
                "weights": [
                    -4.4162358622776,
                    1.975139151020404,
                    -2.4525482624111876,
                    -0.17840031888977614,
                    3.9474497787984713,
                    -1.2197767846671244,
                    -1.9584678095028427,
                    3.173360971282349
                ],
                "bias": 1.134297262992359,
                "activation_function": "SIGMOID"
            },
            {
                "weights": [
                    -2.547680260218512,
                    4.307986943035146,
                    4.113284684891293,
                    1.626027045689806,
                    1.3805872147734048,
                    -0.22540925095247746,
                    -3.5112808544532204,
                    1.899490604253547
                ],
                "bias": 3.5679423672650414,
                "activation_function": "SIGMOID"
            },
            {
                "weights": [
                    4.704690107703294,
                    -9.218109667765724,
                    -4.945018099171986,
                    3.2791452320260923,
                    3.2470808742054853,
                    2.758292340466539,
                    1.8884025163729525,
                    -0.06437447363874643
                ],
                "bias": -1.6055035528496926,
                "activation_function": "SIGMOID"
            }
        ],
        [
            {
                "weights": [
                    0.5029160943046098,
                    0.8946028436837125,
                    -0.16040118580667417,
                    0.6371839838352452,
                    1.2617974531683616,
                    0.8816846965264425,
                    0.5002390715912391,
                    1.5943403469727313
                ],
                "bias": 1.9353405418512046,
                "activation_function": "SIGMOID"
            },
            {
                "weights": [
                    4.920318332037564,
                    2.0945031187561565,
                    -5.741674127224754,
                    -0.10977344593476249,
                    1.3631347548123964,
                    2.528080654498968,
                    -1.6375378231753026,
                    6.099845629638575
                ],
                "bias": -0.019379151661841135,
                "activation_function": "SIGMOID"
            },
            {
                "weights": [
                    4.518570160158116,
                    -2.7826930151421605,
                    1.5378627531434508,
                    1.737819226181154,
                    -4.908605525940756,
                    1.2457389687564278,
                    -3.3966636096250276,
                    4.115285642673893
                ],
                "bias": -1.9284356060472543,
                "activation_function": "SIGMOID"
            },
            {
                "weights": [
                    0.36956848030158596,
                    0.026327677953190708,
                    -0.7544861000560626,
                    0.14103839167127602,
                    3.1502880657531853,
                    0.616606397266507,
                    1.125225505620718,
                    3.267622643189068
                ],
                "bias": 0.38581605838866395,
                "activation_function": "SIGMOID"
            },
            {
                "weights": [
                    6.259077820714767,
                    3.9889984251256143,
                    -6.664350369191941,
                    -1.3037748822621271,
                    0.7921934535677472,
                    4.091440538458914,
                    -4.762782712789973,
                    5.624886263940439
                ],
                "bias": -0.45603221073819133,
                "activation_function": "SIGMOID"
            },
            {
                "weights": [
                    -3.290353168856987,
                    4.396379719694142,
                    5.699462753484979,
                    -0.9998234138646307,
                    1.0678217535440515,
                    4.005152099256523,
                    2.683228603878047,
                    -3.811466754188249
                ],
                "bias": -0.3147833534431957,
                "activation_function": "SIGMOID"
            }
        ],
        [
            {
                "weights": [
                    -3.7032409298829942,
                    2.4704274195783844,
                    6.498145536836349,
                    -3.2523722649387388,
                    0.722284190646924,
                    1.9396918233831577
                ],
                "bias": -4.610890795364882,
                "activation_function": "SIGMOID"
            },
            {
                "weights": [
                    -1.4674509910079028,
                    4.602761571909889,
                    -5.906932656494166,
                    -4.367686803356932,
                    0.6506613641653252,
                    2.504585783799306
                ],
                "bias": -1.760549838084227,
                "activation_function": "SIGMOID"
            },
            {
                "weights": [
                    -1.6213210806589415,
                    1.7917595547914977,
                    -0.0618384626796947,
                    0.8577936779622907,
                    0.5428483196027883,
                    -7.9081605375938855
                ],
                "bias": -1.5545980962560866,
                "activation_function": "SIGMOID"
            },
            {
                "weights": [
                    0.7865857554546971,
                    -0.23925835159517894,
                    0.13318103271779536,
                    2.036514244631046,
                    -3.512490190131789,
                    -3.567650850588561
                ],
                "bias": 0.7707225067553812,
                "activation_function": "SIGMOID"
            },
            {
                "weights": [
                    -0.6681646523689152,
                    -1.3333334552274607,
                    -6.445923667194876,
                    0.8685628353815144,
                    1.392855328524257,
                    0.3877596897585887
                ],
                "bias": -0.49108314487045507,
                "activation_function": "SIGMOID"
            },
            {
                "weights": [
                    -1.7784684332384708,
                    -3.003674730727405,
                    6.726102566020973,
                    -0.8833330210782298,
                    1.1639518877695227,
                    0.016418884634445907
                ],
                "bias": -2.16887038539081,
                "activation_function": "SIGMOID"
            }
        ]
    ]
}