{
    "learning_rate": 0.01,
    "layouts": [
        [
            {
                "weights": [
                    1.6206319413895534,
                    0.07421482520645392,
                    0.749869849951857,
                    2.107937394681898,
                    1.2590086280403652,
                    1.208347633388381,
                    0.6860526597052872,
                    1.7640955125613478,
                    1.0125956635153257,
                    0.17083986828780756,
                    -0.09850229038951652,
                    1.8380803447703713,
                    -0.40362268813027913,
                    1.2894834350964368,
                    -0.08201445231763366,
                    0.12840096359720965,
                    0.19633839338897144,
                    -0.9191154185549615,
                    2.8319008572086664,
                    -1.2231915949421526,
                    1.456932747281592,
                    1.6592641719416688,
                    0.13852699505133842,
                    1.8516960809875533,
                    0.6032090891222471,
                    0.07068824876190437,
                    0.569283788001835,
                    -1.1441499485099345,
                    0.19243795794622992,
                    0.3957245199749656,
                    0.19185452689534235,
                    0.9064051275989252,
                    -0.22155848799742794,
                    -0.4135059383208001,
                    0.36782798200965716,
                    0.2827615196264292,
                    0.24086036765479252,
                    0.4034452914856761,
                    0.22885881816369794,
                    1.653385693297406,
                    0.630005794433647,
                    -2.5822336038231164,
                    -0.40248409098681737,
                    -0.07747775628733125,
                    1.3539687816013413,
                    1.361196238023865,
                    0.9140464065845588,
                    0.5645450365197745,
                    -0.913023557568748,
                    1.1213863270409747,
                    -0.463239709325952,
                    0.11056314022406755,
                    0.5417637998691276,
                    -0.29221824255103024,
                    1.2195490584142121,
                    1.0983803660985372,
                    1.2806948355511325,
                    0.42208607151244526,
                    0.5359154737197147,
                    0.590261281752494,
                    1.7473872700083009,
                    0.13013977457248405,
                    0.49145519177865016,
                    1.2051196606741776,
                    -22.065876816781184,
                    0.5790034710654555,
                    0.10160865320179575
                ],
                "bias": 1.2964914917855375,
                "activation_function": "SIGMOID"
            },
            {
                "weights": [
                    1.0838199192509737,
                    2.3478507421679082,
                    1.2570906934169617,
                    1.4701020594974656,
                    0.6439752783298501,
                    1.6531626612985915,
                    0.13199147703167854,
                    1.2169928844962983,
                    0.8143221604954404,
                    1.541235958610853,
                    4.2797286505579315,
                    -1.017005950938626,
                    2.9382337948126174,
                    2.2009220995393957,
                    -2.1546567979770446,
                    -0.10860553102702036,
                    4.096779514889042,
                    1.7678358229096125,
                    2.964590759326734,
                    0.5356568869842521,
                    0.3235369544213837,
                    0.5014205327673065,
                    0.4148492006087418,
                    0.02486749829655976,
                    2.3142332707028284,
                    -2.404081862648772,
                    -2.4897605726187795,
                    0.74915627859411,
                    -2.995896479001892,
                    -0.17197690489858825,
                    0.7466572154629328,
                    0.3606945694727862,
                    1.719457546569589,
                    -0.4542282099685207,
                    -0.7525104256313486,
                    0.33349057316597364,
                    0.7027218386572387,
                    3.2853487657548315,
                    1.6472249936706764,
                    -1.0965765603143045,
                    -1.8132312873539091,
                    0.26235454859357554,
                    -2.001851355823935,
                    2.83852117411107,
                    -1.484197093732882,
                    -1.597421790360548,
                    -2.6338936278554157,
                    3.7541601229953723,
                    -1.8228599405783912,
                    2.0144818928217374,
                    -0.6082908508920459,
                    -1.0420100191146173,
                    -3.3971035505469893,
                    -1.0899026963358787,
                    -3.694089917575894,
                    -1.8554745927184735,
                    2.4084711504620686,
                    -4.089522057501249,
                    1.8985940690661398,
                    0.5560993264528938,
                    -0.7117056449737481,
                    -0.4439629269873401,
                    -1.1423776393514202,
                    3.570855193185248,
                    6.641066682039711,
                    0.2701942850279419,
                    -0.607304606834083
                ],
                "bias": -1.6204733876679633,
                "activation_function": "SIGMOID"
            },
            {
                "weights": [
                    -0.8652245922799131,
                    -2.0586458009008624,
                    -0.939221500779847,
                    0.6972714110797869,
                    -1.4287104627041745,
                    2.383430609386152,
                    -2.3672577952932152,
                    -0.20462203474674504,
                    -0.8811644976994726,
                    -1.2016632069182203,
                    -0.23267944828306478,
                    0.6759015808199855,
                    -1.4750429710223447,
                    0.3871438462480195,
                    -3.2438456154684547,
                    -2.0340808185891315,
                    0.15816935312618488,
                    -1.5896831178675137,
                    2.358261558270987,
                    -0.38241728088096855,
                    1.3447789603558404,
                    -1.9031283103564327,
                    -0.1620591985882814,
                    0.5835953089483433,
                    1.1481001089316392,
                    0.26763916546001193,
                    -0.005037919773815942,
                    1.4229185769941772,
                    -2.9234105257140044,
                    -0.3576828942924055,
                    -3.029485074146748,
                    -0.5711269642305847,
                    0.9806885924101283,
                    -0.7254206349554274,
                    1.9720425436687012,
                    -0.5509389241098814,
                    -1.2804311153547001,
                    -0.28649352346644547,
                    -2.231812336568032,
                    0.413254559207876,
                    0.5924769505298373,
                    0.09915376779263518,
                    0.3721608311917425,
                    0.5865662814729536,
                    1.2283161696766154,
                    1.7709127608699384,
                    -2.8544557484804605,
                    -0.9193021774326052,
                    0.1577946499428541,
                    1.191029684407784,
                    -1.0826243271691474,
                    -3.12277685049459,
                    -2.2240420514378965,
                    -0.1389714922618628,
                    -0.5635582869382119,
                    -1.5906508210710333,
                    1.8598126438572775,
                    -0.7068203508321822,
                    -1.0783681555874536,
                    0.3329086825519946,
                    -0.16374572624743391,
                    -0.5024841667464053,
                    -1.8281892245523241,
                    -0.4716653188767486,
                    5.7092716881719365,
                    -0.46027010152526265,
                    -0.4904756911663997
                ],
                "bias": -0.25518839393191933,
                "activation_function": "SIGMOID"
            },
            {
                "weights": [
                    1.2526116781493253,
                    -1.2705534334074613,
                    0.23520401864643445,
                    -0.14485713683834664,
                    -0.3556347598961473,
                    -2.3175498266015904,
                    -1.6218208140426986,
                    -0.9445416376444498,
                    -1.176123911841394,
                    -0.24521904169397055,
                    0.5294961949927475,
                    1.3430889507746149,
                    -0.8176819088348403,
                    -1.112329683539882,
                    -1.6349338633042585,
                    0.07241571016853793,
                    -1.683549605584034,
                    -2.487893264674058,
                    0.8947534357431131,
                    1.210510396695936,
                    1.4863826022135764,
                    -0.39947615409214426,
                    -0.7954155892952303,
                    -0.2045539816898993,
                    -0.8132425872860576,
                    1.2710309000132831,
                    0.5207335089420277,
                    0.11733381436139462,
                    1.2104167956202563,
                    -0.4801361837492826,
                    -0.22738868699684336,
                    -1.7452162475519128,
                    1.556134167147767,
                    -0.4335037111989159,
                    1.3902784775919306,
                    0.12126738454055941,
                    -1.5822811977371594,
                    -0.12714769680392154,
                    -0.3125112057504429,
                    -0.8050754784217302,
                    -0.4604221154081688,
                    -2.1101197962981453,
                    -0.6181226127187549,
                    -0.15221010756442283,
                    0.33707535341283523,
                    0.151558223966974,
                    -0.3440696177850757,
                    -1.111853308410547,
                    1.2935067272044334,
                    -0.485646944948417,
                    0.5965643119168942,
                    0.4231995958525951,
                    2.325266076591323,
                    -2.114789801251326,
                    -2.39501073974349,
                    1.3142950635947044,
                    0.5116347207694573,
                    -0.5861361474612836,
                    0.7076719424178166,
                    0.0679846458000289,
                    0.29030820028457444,
                    -1.18785302996159,
                    0.09983792060217288,
                    -0.08324696593007024,
                    1.8878532077886119,
                    -0.2743315731772091,
                    0.37579993858775235
                ],
                "bias": 0.36353063601745056,
                "activation_function": "SIGMOID"
            },
            {
                "weights": [
                    -1.50157499483363,
                    -2.344081929847516,
                    0.5009321854035099,
                    -0.4228425966538583,
                    -0.9882476419158616,
                    2.225755217553289,
                    -0.6573485406798094,
                    0.02078410709292346,
                    -0.7055656030183012,
                    0.7969938565512706,
                    0.07259941876290713,
                    1.9337020671434473,
                    2.7577920843437553,
                    3.897878522378912,
                    -2.1629931142850864,
                    4.043060375558064,
                    0.44993224874527543,
                    1.7232441591222705,
                    1.2253841149580156,
                    0.3581349865626221,
                    0.10379101235317251,
                    1.4512356592340403,
                    1.3618265298948524,
                    0.1807162642938436,
                    1.1350404727040841,
                    0.11480711634909127,
                    -1.2127654086894581,
                    1.1722325859120224,
                    1.0164289221464176,
                    0.525556015723816,
                    1.3320831842094907,
                    -0.00658465936794737,
                    -2.8604933598980966,
                    -1.3658877780597305,
                    1.5873529062285847,
                    0.9242332881842201,
                    3.0574559771604917,
                    2.3515519151584643,
                    0.282466810559033,
                    -2.7182852071709536,
                    -0.3331632854304541,
                    0.9624018842992307,
                    -0.43466115979009684,
                    1.2658461055409098,
                    -0.2260511875600607,
                    -0.7518261574427749,
                    0.4582797348914241,
                    -1.8205231443334084,
                    -1.898100329181484,
                    1.3155621614040325,
                    1.2227009262284603,
                    -0.4101187221506694,
                    -1.8122140264609996,
                    1.695887363165049,
                    -1.820542867549748,
                    -1.609856595352131,
                    -0.652699391320854,
                    -0.6987790292405531,
                    -0.7326303279390678,
                    -1.0911091538642124,
                    -1.8461079469084924,
                    0.031012720407981087,
                    -0.2371918804493267,
                    0.3940305874289811,
                    -8.956016453983812,
                    -0.651259493441488,
                    0.9326366206983616
                ],
                "bias": 1.4397308546656704,
                "activation_function": "SIGMOID"
            },
            {
                "weights": [
                    1.033958004959457,
                    0.7392139305041253,
                    0.5535122043151764,
                    1.6923895801905653,
                    -1.3099464856811933,
                    0.49675760332930263,
                    -1.8422300157681493,
                    0.09584469615150752,
                    3.0198989427090446,
                    0.2591771326874352,
                    0.38331668626618703,
                    0.12911513801402086,
                    1.1957343974026575,
                    0.0625146928661774,
                    0.3395563039325086,
                    0.9249324324903541,
                    -0.37275639785447356,
                    -0.5325670393435736,
                    -2.7558969880825406,
                    -2.1271114002344964,
                    -2.168203055924551,
                    2.014274513416077,
                    -0.8566420879453438,
                    0.04523722822024944,
                    1.2872478487491508,
                    0.9508174742129009,
                    0.5177740814863752,
                    0.7269705782668494,
                    1.5389852888756685,
                    -1.3262328555080862,
                    -2.0821433739716455,
                    -0.46411372960820724,
                    -1.057131698932056,
                    -0.5649012486919799,
                    -0.09413081739591518,
                    0.7645110551501371,
                    0.5144245623047932,
                    -0.6661821081250847,
                    -2.200270056472882,
                    -1.8612269957212955,
                    -0.3200666710956251,
                    -0.4824145558814359,
                    0.12952980843351944,
                    -1.0568790452783614,
                    -0.3704341779905931,
                    0.9482013030789805,
                    0.3804614997255586,
                    0.11470531034207902,
                    1.3278983517046274,
                    -2.2631200836600422,
                    -0.06510805987631316,
                    -0.5379366533924516,
                    -1.643231423366523,
                    -1.970874046611057,
                    -2.013331617338367,
                    -1.6469606181499443,
                    0.18143986396366057,
                    -1.3899359659503936,
                    0.6070439097704471,
                    0.4963930218882959,
                    -0.18701645285740268,
                    0.9115368453502769,
                    0.7743123857799471,
                    -0.22329239042577015,
                    4.3744830667477235,
                    -0.7507032548496005,
                    -0.5740326952906349
                ],
                "bias": 0.8148871876486694,
                "activation_function": "SIGMOID"
            },
            {
                "weights": [
                    1.66360799019327,
                    0.6369770525583025,
                    -1.0773934497719453,
                    -2.8283355445713942,
                    -0.5368202299183723,
                    0.18260106164032597,
                    0.1582479045832693,
                    0.8203708390637627,
                    0.42842586352443607,
                    -2.508536693683462,
                    -2.5088022267819086,
                    -2.6288741060693885,
                    3.445971901782271,
                    -2.7654426456052335,
                    0.18809240818689252,
                    2.3726966353181753,
                    -0.26240125873101755,
                    -1.3746100364311076,
                    -2.7125153754489815,
                    1.2753714404140775,
                    0.4999035399222162,
                    1.7706415678828773,
                    -1.4716358705334982,
                    -2.9960167513242983,
                    1.5343794174748375,
                    -1.2049595127401935,
                    -2.142305723986612,
                    1.7229704092926066,
                    0.9242231284495637,
                    -2.5550390584307054,
                    -1.6968400439981277,
                    -0.24843266530720307,
                    1.222029579666558,
                    0.3645082767619517,
                    1.0546351753283516,
                    -0.421874551880173,
                    -1.0427687357183575,
                    -0.6833968177693224,
                    -0.39222295378060223,
                    -0.4751205211603844,
                    -2.940654584653935,
                    2.037555455447631,
                    1.3698444800792378,
                    0.007901234470569982,
                    -3.1193524196173947,
                    -1.2013713708783536,
                    -2.369084815284344,
                    1.6706277849202986,
                    -1.2378078368048262,
                    -1.4922885711716574,
                    3.880424460758819,
                    2.0621443965141415,
                    -2.494609566482337,
                    -0.1718372920568734,
                    0.6233802827677432,
                    0.9590076721345354,
                    1.9806479271532975,
                    -1.625542666454482,
                    0.20482855314474424,
                    1.4857933904436296,
                    0.9194904545972215,
                    1.8767531463330296,
                    2.2722415151880564,
                    -2.192126239139812,
                    -3.5865678652753097,
                    -3.7136650173867385,
                    0.6148988868141704
                ],
                "bias": 1.3432685622419585,
                "activation_function": "SIGMOID"
            },
            {
                "weights": [
                    0.13683555466539793,
                    -0.8768565915126441,
                    1.2657262744523483,
                    -2.9159158256600515,
                    -2.580299121398526,
                    -1.4295937859453234,
                    -2.137003506124231,
                    -1.6898814872437546,
                    -0.27351633404244763,
                    2.004430122017246,
                    0.019992584579353486,
                    1.1271601329356038,
                    1.864326127632356,
                    -0.010246034206299562,
                    1.2107047440849887,
                    -0.2720439684607159,
                    0.2952606184680257,
                    0.4412755426060594,
                    0.8629663518544659,
                    -0.5419667553016224,
                    -0.4618757825101043,
                    0.05327391047208972,
                    0.8661041899998017,
                    -1.1642745923860887,
                    2.212265651276696,
                    -0.8429263738744616,
                    -3.1764032470398096,
                    0.4132365256006061,
                    -0.4095010702693605,
                    -1.58372137351725,
                    -1.1265811348386474,
                    -0.15589742106349908,
                    -0.19429990821609586,
                    1.1956844881983477,
                    1.4276555129331054,
                    -0.9019912381345434,
                    0.24313614309880419,
                    0.9737998122630543,
                    -0.8744316329753297,
                    -1.7478159258975159,
                    -2.4843377969469844,
                    0.061062572104471,
                    2.694366152902705,
                    -0.12218926001348038,
                    -1.6720418217548918,
                    -2.231707024763044,
                    -2.2390293632072304,
                    -1.233138921574296,
                    2.4179969116810707,
                    -1.075784369942582,
                    0.11652296342260562,
                    -0.43444550124097053,
                    -1.5244629527167706,
                    0.9464217448749056,
                    -0.583639320818346,
                    0.2882784081875685,
                    0.3838260487731058,
                    0.3459656394977534,
                    -0.1553536400664677,
                    -0.6605388427036576,
                    2.3133791091792033,
                    0.5981679784583098,
                    -2.5167757070420023,
                    -2.5549290971980754,
                    4.843967031802482,
                    0.8480892233898487,
                    0.7175431575704394
                ],
                "bias": 0.709673773520664,
                "activation_function": "SIGMOID"
            }
        ],
        [
            {
                "weights": [
                    -0.6204028247152443,
                    -3.620026753931314,
                    0.8297141043963379,
                    2.402786467565929,
                    4.37350795492735,
                    -4.213413672847844,
                    1.2785347198194499,
                    -4.369040405204848
                ],
                "bias": -0.7258626004550839,
                "activation_function": "SIGMOID"
            },
            {
                "weights": [
                    -5.6483371274737335,
                    3.598745199162581,
                    -3.8420955312722387,
                    1.1439637413682662,
                    -2.1332857058474906,
                    2.2696772714867914,
                    -1.7288078356925494,
                    2.6456814577720804
                ],
                "bias": 2.037987740410356,
                "activation_function": "SIGMOID"
            },
            {
                "weights": [
                    -3.166969705377455,
                    -2.6737350795475807,
                    6.972907117081206,
                    2.708920931631421,
                    -1.8127161192651733,
                    1.134951999119243,
                    -2.8964168403487376,
                    0.6473673687927559
                ],
                "bias": 0.7510642328467723,
                "activation_function": "SIGMOID"
            },
            {
                "weights": [
                    2.2302597043871106,
                    3.160936518100232,
                    -1.230448179813537,
                    -1.199505200342984,
                    2.311303022115469,
                    -3.468385647949844,
                    3.760814523563429,
                    -1.0554265746484555
                ],
                "bias": -2.5750583417495934,
                "activation_function": "SIGMOID"
            },
            {
                "weights": [
                    1.8838790404315713,
                    0.6523872666740081,
                    -3.5777390633550237,
                    -3.505297326266975,
                    2.6608412776235824,
                    0.5221693173194878,
                    -0.23028436581012776,
                    -1.7950508302222523
                ],
                "bias": -0.9859501516806322,
                "activation_function": "SIGMOID"
            },
            {
                "weights": [
                    -0.18870699143694927,
                    -4.609211102523176,
                    0.6817942764628584,
                    3.476456534083749,
                    -2.9261655916047857,
                    -2.478488614383257,
                    -2.267318032890413,
                    -0.7900816642128479
                ],
                "bias": 0.5036620283110541,
                "activation_function": "SIGMOID"
            },
            {
                "weights": [
                    -5.175034526471603,
                    -3.4238724493286785,
                    4.002239680089107,
                    2.4668528674623422,
                    1.0224182513735025,
                    -2.4414028385082314,
                    6.0956121954625075,
                    -2.4929956924336243
                ],
                "bias": -1.6006406658446937,
                "activation_function": "SIGMOID"
            },
            {
                "weights": [
                    1.2209025610177953,
                    -1.4936981220917387,
                    1.3156861567709477,
                    1.778577185873499,
                    0.2688702885931697,
                    1.4937909679208847,
                    0.015659451324881748,
                    1.735519177104374
                ],
                "bias": 0.9409752386502078,
                "activation_function": "SIGMOID"
            }
        ],
        [
            {
                "weights": [
                    3.7887049401396506,
                    -4.9373649066784004,
                    -3.1666735842374667,
                    2.11120709321642,
                    1.0594711293370362,
                    2.8608248226021864,
                    2.1211075078793806,
                    -0.24770584642266888
                ],
                "bias": -0.8716259776233702,
                "activation_function": "SIGMOID"
            },
            {
                "weights": [
                    -0.437682990479471,
                    0.5533303605150305,
                    1.7303970411431462,
                    0.349210892855982,
                    -1.7646764696395434,
                    -3.8431379963370467,
                    0.9795254218172057,
                    -0.301173348580682
                ],
                "bias": -1.1265194916242778,
                "activation_function": "SIGMOID"
            },
            {
                "weights": [
                    -2.924390955010526,
                    -0.42484232094308505,
                    -3.8718823461210206,
                    6.980248623365603,
                    4.723081269166167,
                    -2.5486384848198953,
                    -4.62948476185496,
                    -2.2806313115364416
                ],
                "bias": 1.4997688292573381,
                "activation_function": "SIGMOID"
            },
            {
                "weights": [
                    2.115057696179547,
                    -1.1241626584099251,
                    -0.9329946875543826,
                    0.7801324388381887,
                    1.783320608649205,
                    1.0290077572385155,
                    0.2998315317905273,
                    2.1930552491745403
                ],
                "bias": 1.035263964644903,
                "activation_function": "SIGMOID"
            },
            {
                "weights": [
                    -0.799578896448018,
                    2.2911866685756723,
                    2.7505453353709988,
                    -1.7092186090497614,
                    -3.9706107806419033,
                    0.4030232200477678,
                    3.096079365857588,
                    0.28407840732515827
                ],
                "bias": -0.8907225384828467,
                "activation_function": "SIGMOID"
            },
            {
                "weights": [
                    -2.069221861275848,
                    0.023748744497732427,
                    -0.6285623257825103,
                    0.29355462665046395,
                    2.21819115161964,
                    -1.1258857258561816,
                    -2.2088156663008367,
                    1.8212774018023743
                ],
                "bias": -0.558882668123992,
                "activation_function": "SIGMOID"
            },
            {
                "weights": [
                    -3.279924125931578,
                    3.56135232500542,
                    2.9533150812296873,
                    1.3794233547910655,
                    0.7519202018321776,
                    -1.0991110636541763,
                    -4.553542104654024,
                    0.7773311015175344
                ],
                "bias": 2.058521189880751,
                "activation_function": "SIGMOID"
            },
            {
                "weights": [
                    3.273497639793589,
                    -5.402007605740741,
                    -4.266670578581864,
                    2.2047340529856934,
                    1.3304822538375833,
                    0.8407472859961775,
                    1.3269520499773844,
                    0.394371114632557
                ],
                "bias": -1.5097357773521811,
                "activation_function": "SIGMOID"
            }
        ],
        [
            {
                "weights": [
                    0.4239953464330523,
                    0.862653126921895,
                    -0.16850912817006417,
                    0.3518444471442186,
                    1.0118689915705115,
                    0.14099405459580705,
                    0.5738035065416333,
                    1.3973669650577452
                ],
                "bias": 1.6327261662466694,
                "activation_function": "SIGMOID"
            },
            {
                "weights": [
                    2.3647837668986793,
                    1.2482555143016612,
                    -2.5004098610683374,
                    0.27163504916329234,
                    1.3231397180693434,
                    1.283071276301172,
                    -0.7997996682370841,
                    3.583183965808157
                ],
                "bias": -0.047155512508908835,
                "activation_function": "SIGMOID"
            },
            {
                "weights": [
                    2.902781813857953,
                    -2.205464462470239,
                    0.5977920231951261,
                    2.7364508838695767,
                    -3.3401989890490724,
                    1.5240142571512447,
                    -3.688090809109454,
                    4.132399169029647
                ],
                "bias": -0.9314112511985441,
                "activation_function": "SIGMOID"
            },
            {
                "weights": [
                    0.9173504427622999,
                    0.4272569123766,
                    1.1552395758269487,
                    0.03054204770096477,
                    1.2667622401830227,
                    0.36112223238411195,
                    0.6994178801166768,
                    1.6644841068469196
                ],
                "bias": 0.29756593593192676,
                "activation_function": "SIGMOID"
            },
            {
                "weights": [
                    5.1785086955123365,
                    3.5566183588156144,
                    -5.687202940513642,
                    -0.417365556573976,
                    1.6379940149723642,
                    3.192165440941456,
                    -3.8238984672183545,
                    4.183960283862389
                ],
                "bias": 0.18445716141079774,
                "activation_function": "SIGMOID"
            },
            {
                "weights": [
                    -3.0229927858434738,
                    0.6570558968631739,
                    5.714917313054031,
                    -0.8912715139253077,
                    0.5943181574341572,
                    2.328574190933338,
                    3.4506841978703116,
                    -1.975456391631093
                ],
                "bias": -0.3080185355298233,
                "activation_function": "SIGMOID"
            }
        ],
        [
            {
                "weights": [
                    -2.361406080838739,
                    0.5394263913992117,
                    5.135900962158162,
                    -2.515084067228777,
                    0.588452140939467,
                    2.125748193909617
                ],
                "bias": -3.347823716356164,
                "activation_function": "SIGMOID"
            },
            {
                "weights": [
                    -0.2617962163644498,
                    1.2306955674487214,
                    -5.379188215764652,
                    -2.5869852903686796,
                    1.2431549855118254,
                    1.3009149254933727
                ],
                "bias": -0.6093142342120864,
                "activation_function": "SIGMOID"
            },
            {
                "weights": [
                    -1.4124656949349346,
                    1.2204073786536618,
                    -0.2066609836222246,
                    0.027844643293918434,
                    1.6766649555610562,
                    -4.210219749075217
                ],
                "bias": -1.1033559266899908,
                "activation_function": "SIGMOID"
            },
            {
                "weights": [
                    1.5818059964443896,
                    -0.5228714433634826,
                    -0.2272279916748592,
                    1.5101361380178593,
                    -3.676883993795179,
                    -4.286091111658033
                ],
                "bias": 1.5872547637350272,
                "activation_function": "SIGMOID"
            },
            {
                "weights": [
                    0.30606695772720915,
                    -4.164401334241757,
                    -3.7307669547790665,
                    0.08487023911675298,
                    2.308421184755112,
                    0.9405001025054411
                ],
                "bias": 0.5929146250086011,
                "activation_function": "SIGMOID"
            },
            {
                "weights": [
                    -1.9059907127530582,
                    -2.0426044943589092,
                    4.630241637559362,
                    -1.2053615886639943,
                    0.9138825505012946,
                    2.0488783414349325
                ],
                "bias": -2.3059176032615194,
                "activation_function": "SIGMOID"
            }
        ]
    ]
}