{
    "learning_rate": 0.01,
    "layouts": [
        [
            {
                "weights": [
                    2.098845294797397,
                    0.45914349328210835,
                    0.20043894452528563,
                    0.786960116224805,
                    0.6368941457935425,
                    1.964712911347585,
                    2.697364933721462,
                    5.5562927330511185,
                    0.1436679852512091,
                    2.089370845177236,
                    -0.6449958238711091,
                    3.5029398650841244,
                    -1.0503512767929197,
                    1.0684753676020873,
                    0.40300574324289584,
                    0.22513685935390623,
                    -0.2527081769323303,
                    -3.7388025387436477,
                    1.4615200220360522,
                    0.8255173832961702,
                    2.734936675920347,
                    2.2971957012997897,
                    0.8905091116320788,
                    0.6577794870636284,
                    3.185906710386531,
                    2.4253813301861844,
                    -0.06668046598463782,
                    0.26549497458267557,
                    0.6916658496771942,
                    1.963119641012792,
                    0.2387667518567953,
                    0.5729584696931385,
                    1.0968481320285615,
                    1.9708076786774533,
                    -0.18721641361799138,
                    -0.1643264030552449,
                    0.13850454294289066,
                    2.163432634488068,
                    1.4440754330852776,
                    2.8803703321626526,
                    1.558251655914983,
                    0.15525085876517716,
                    -1.9218916212536181,
                    -0.714361672090457,
                    -0.01472921399239501,
                    -1.231143439235485,
                    0.6513868759375503,
                    0.23567334645646548,
                    -0.20071606179491935,
                    -0.1912130839026864,
                    0.6929086413212531,
                    1.2649913882369714,
                    0.41684670433619275,
                    0.7643857535395538,
                    2.172363910984612,
                    1.8872162032706654,
                    4.388725658118429,
                    1.6483551832062386,
                    0.3975841414254619,
                    0.45916103027193655,
                    -0.3217835825452268,
                    1.540237533939286,
                    0.5619012562350338,
                    2.660304903523056,
                    -31.26600196109326,
                    0.24100382202113707,
                    0.05244273262628371
                ],
                "bias": 6.858060180733698,
                "activation_function": "SIGMOID"
            },
            {
                "weights": [
                    -0.061654491851376725,
                    2.9457328051912657,
                    2.144547007071552,
                    1.5090362474191625,
                    1.7074597785091679,
                    2.5477933596120397,
                    0.3947466583731458,
                    0.04416727466718413,
                    0.9238969708760639,
                    2.6629410587534132,
                    4.401721909875814,
                    0.3912683211519471,
                    4.041041919940458,
                    3.825376054955321,
                    -2.8277160361802745,
                    -0.9321242321935144,
                    5.047059835419972,
                    1.4561685198610839,
                    4.801543760790351,
                    2.293407760602967,
                    0.5156612026233193,
                    0.48618406028676686,
                    0.392775451025382,
                    1.1548535627518424,
                    3.092231330691753,
                    -3.132720844466729,
                    -2.4083185328117893,
                    1.3745245465246996,
                    -3.108305786722082,
                    0.8547901921883958,
                    -0.023585877136936096,
                    -0.17660372352676093,
                    2.8973115890429644,
                    -0.9420263263697807,
                    -0.8493621642059082,
                    2.1532204494336296,
                    1.8954211697874466,
                    2.986928296103989,
                    1.0684631277713674,
                    -0.1343433298215142,
                    -0.991915019945826,
                    0.8376803084645416,
                    -2.962802383004,
                    3.0283915918255686,
                    -1.379994870965369,
                    -1.798891092199509,
                    -4.656339651789558,
                    4.694418928927226,
                    -1.3409060343231556,
                    2.5506764707759313,
                    -1.6690374010591014,
                    -1.2016590168834684,
                    -3.4249744721107143,
                    -0.2487327011834643,
                    -4.335805687177813,
                    -3.049004675905812,
                    3.5358296668638944,
                    -4.627777821994742,
                    2.3291034494843332,
                    1.4039899986305675,
                    -0.3630820197010128,
                    0.5982493663294117,
                    -1.738976095911775,
                    5.27933520659686,
                    8.81857996806713,
                    0.5472179990325257,
                    -1.3320398962088662
                ],
                "bias": -2.254223005692307,
                "activation_function": "SIGMOID"
            },
            {
                "weights": [
                    -1.2278696042006325,
                    -2.0323732208753733,
                    -0.5592199902801525,
                    1.4317221079962312,
                    -1.0306334897884468,
                    2.55602842983803,
                    -2.4533225722268366,
                    -0.5537243715816538,
                    -0.010563961716475155,
                    -0.8521641904692674,
                    0.3601860568586679,
                    0.5770916802450449,
                    -0.9277653967666609,
                    0.1477802304377141,
                    -3.5325407777421116,
                    -2.811989333732041,
                    0.8809699179442895,
                    -2.6863105420988522,
                    2.3992364423431605,
                    -0.18768927185754192,
                    1.7401464214656046,
                    -1.4907350414933125,
                    0.5875291992987856,
                    0.8149205952040453,
                    1.344108982411235,
                    0.2162734580387326,
                    -0.45961902855981623,
                    1.3134974867097446,
                    -3.5214648466364187,
                    -0.7020587105565111,
                    -3.791418290216069,
                    -0.4898357739555227,
                    1.3800086669774776,
                    -0.7248452655332072,
                    1.9068589681720942,
                    -0.010353513389611994,
                    -0.2139517384758729,
                    0.1336410986319783,
                    -1.866642444932862,
                    1.4087468910913563,
                    0.3107374558008774,
                    -0.4721595219115065,
                    0.5162715013932766,
                    -1.1536463609247918,
                    1.1581331566476059,
                    2.5347134743302924,
                    -3.29960355376492,
                    -0.846979886024752,
                    0.5747635913157337,
                    1.1399116930712272,
                    -1.4072177962433061,
                    -2.6754286176623707,
                    -2.170374467382622,
                    0.12302441532269834,
                    -1.323888940517511,
                    -2.218729867402923,
                    2.347906180097568,
                    -0.10684963071432697,
                    -1.6999296809852205,
                    0.044253139531513275,
                    0.5657741088764615,
                    -0.23824841164296554,
                    -2.2515915828181323,
                    -1.5805842696911505,
                    6.19155379699999,
                    0.05831641801068035,
                    -0.9468523641961627
                ],
                "bias": -0.22878038440055257,
                "activation_function": "SIGMOID"
            },
            {
                "weights": [
                    3.681021575280324,
                    -3.2751885035669988,
                    0.11675974513104867,
                    -0.37222744361036303,
                    0.02054866846192138,
                    -2.019050183833301,
                    -1.7149202544935276,
                    -0.4838467114316494,
                    -3.146419797221884,
                    -0.49376059580887327,
                    -0.4100678677486471,
                    2.866388375851447,
                    -1.8984051827251258,
                    -2.026889111186354,
                    -3.9434303603839203,
                    -1.695484361746536,
                    -1.0828776582989885,
                    -3.327112180392192,
                    -0.5886527128448892,
                    1.994500505462047,
                    0.15051693566862515,
                    -1.2072905898135238,
                    0.6624178132417382,
                    -0.3252456513272577,
                    -0.42604827956161856,
                    1.7451653783116718,
                    -2.305728067980533,
                    -0.8720164991210871,
                    4.700797323724898,
                    1.1449186694064863,
                    0.3503099985568039,
                    -2.2331580432139284,
                    3.7897805995857605,
                    0.5658505320003889,
                    0.7709676965932142,
                    0.03499222248722639,
                    -1.9240982455049276,
                    0.9586858913813813,
                    -0.3673996166652846,
                    -4.071139063370344,
                    -0.7110659106844411,
                    0.34344175029720714,
                    0.05527465690947327,
                    -0.2262896246090816,
                    0.8610179034582903,
                    -1.511111617948758,
                    -2.380755091585682,
                    -4.790428402064812,
                    2.17247258598464,
                    -0.8644869974611273,
                    1.9321837981338394,
                    0.2445599181526025,
                    4.254035484231869,
                    -3.3770149836324874,
                    -4.377090244791082,
                    -1.5635143097297262,
                    -1.3412498798575903,
                    -1.1631129070665815,
                    -0.7918628164890023,
                    2.485198882538496,
                    0.6334643138446494,
                    -2.5678645145455774,
                    -2.390062252931743,
                    -0.9715048705485679,
                    5.69105051319827,
                    -0.3990019759093651,
                    0.5052228630495889
                ],
                "bias": -0.0689492579024355,
                "activation_function": "SIGMOID"
            },
            {
                "weights": [
                    -1.7362101638621583,
                    -2.3794704561445,
                    0.3769447478993874,
                    -0.5121635399375839,
                    -0.8807115935949824,
                    2.174366983115663,
                    -0.7509689480980885,
                    -0.4037683428805775,
                    -0.6939500757460485,
                    0.7548258541615352,
                    0.2146948117830394,
                    1.8995983768738303,
                    2.4799892876198792,
                    3.63541053318931,
                    -2.3757166513709462,
                    4.254177128969555,
                    0.345076756598988,
                    2.2344103228186625,
                    1.282579233446085,
                    0.17277538945178544,
                    -0.044483846599375175,
                    1.869967857581258,
                    1.1280109844689592,
                    0.22442704432600516,
                    1.2178194514070375,
                    0.10130698747972015,
                    -1.0538074865064537,
                    1.6825073942783753,
                    0.9170738414536829,
                    0.534081185423268,
                    1.1965817828121883,
                    0.0768176834953929,
                    -2.9400840644707986,
                    -1.2196826268747885,
                    1.4450383025943967,
                    0.9255115724399955,
                    3.1763407138904225,
                    2.1503771778160736,
                    0.06104830564351978,
                    -2.47110191885977,
                    -0.3230457413906588,
                    0.9547798507788405,
                    -0.2359079333079854,
                    1.25160855691672,
                    -0.07804480252607314,
                    -0.7417609844443762,
                    0.5362153593784826,
                    -1.7535323920650894,
                    -1.6957085315132352,
                    1.2037408468234883,
                    1.1894481799458636,
                    -0.3281302493651337,
                    -2.222775892396022,
                    1.6025919656783727,
                    -1.5685203817825533,
                    -1.5689136326956303,
                    -0.6489438961668776,
                    -0.8141132965074571,
                    -0.8688198568127468,
                    -1.1757276888018613,
                    -1.9123094612700124,
                    0.05224094798764601,
                    0.6203978833595436,
                    0.41176268701327823,
                    -9.014193617233534,
                    -0.3878001410726061,
                    0.9798651658664255
                ],
                "bias": 1.4042350518944093,
                "activation_function": "SIGMOID"
            },
            {
                "weights": [
                    1.677774010271133,
                    1.7960166724265376,
                    1.1335628524440113,
                    3.254430569486637,
                    -1.8040038721082694,
                    0.6255562362490864,
                    -1.957106534586918,
                    1.671768742329982,
                    3.088812377861941,
                    -0.16915544408078595,
                    1.8664587478162598,
                    -0.43479322240767126,
                    1.427241645596935,
                    0.2607902232913197,
                    -0.16843433018149498,
                    0.8250348610559551,
                    -1.1681595665653335,
                    -1.0618811893932916,
                    -3.388897597993408,
                    -2.130304188574862,
                    -2.4806590045049104,
                    1.7558465585302903,
                    -0.9195002410441216,
                    1.2021081627448804,
                    1.793458363341857,
                    2.021624603773014,
                    -0.08974417699574688,
                    -0.07679424784767852,
                    1.0481238780835171,
                    -3.1373447003298307,
                    -2.01713700890096,
                    0.19558075133102942,
                    -0.05009915913454261,
                    0.24450292959618766,
                    -0.5424348249946778,
                    1.3300740222524703,
                    2.122600094979796,
                    -1.5573781224623808,
                    -3.4163618847522303,
                    -2.4608948370812755,
                    0.17488080970787503,
                    0.36606102492298415,
                    0.9001583056976855,
                    -1.2057304653705208,
                    0.8141634938578096,
                    3.086325378838088,
                    1.557115256094667,
                    1.1390501192349969,
                    1.6260357942239843,
                    -3.0152122542332473,
                    1.120782050414548,
                    -1.3128173451902154,
                    -1.268080906506881,
                    -2.6568321635666243,
                    -2.5524099175205675,
                    -2.6845366202293315,
                    -1.6445826748284733,
                    -2.0958723337438316,
                    0.7443366287219763,
                    0.3749553417291789,
                    -1.4085716319841624,
                    2.315895971038231,
                    2.240582897351481,
                    0.5332775178978217,
                    5.992723896107541,
                    0.3093710536678374,
                    -0.6995058390283507
                ],
                "bias": 0.7795026088373637,
                "activation_function": "SIGMOID"
            },
            {
                "weights": [
                    1.8065507436500003,
                    0.4855130266698689,
                    -1.4886490855135561,
                    -2.9153489704499447,
                    -0.7417401083370962,
                    0.08855091424851234,
                    0.9274384946215453,
                    1.242952552582804,
                    0.5917656540236034,
                    -3.124585444691487,
                    -2.01604996396344,
                    -3.176251065189914,
                    3.3174202241081483,
                    -2.2901488588571315,
                    0.03855274948560269,
                    2.744366810388698,
                    -0.21709464244532015,
                    -1.8787241904131158,
                    -3.370940201901088,
                    1.6240394647266436,
                    0.872992813221754,
                    2.2250168674899653,
                    -0.7277218179286628,
                    -3.721186739585808,
                    1.7168139289911633,
                    -1.4072191740298303,
                    -3.441973339179377,
                    1.425938865254043,
                    1.6440760259469154,
                    -2.7676090451325117,
                    -1.3995396650135667,
                    -0.3375045938331287,
                    1.4317105918006514,
                    0.6125759685388452,
                    1.6788605381034163,
                    0.06420398028372995,
                    -0.5795709279714029,
                    -1.0987287453265646,
                    -0.15476998224657842,
                    -0.63663536570245,
                    -3.192722992419504,
                    1.964091348396947,
                    1.9746455039786819,
                    -0.2528705372434584,
                    -4.305367584353514,
                    -1.065354225988288,
                    -1.6858369658013916,
                    2.5281290227030118,
                    -1.6529908203733206,
                    -1.9302181184108915,
                    4.8129932770155595,
                    2.3742401914350846,
                    -2.871599705744061,
                    0.156360689249572,
                    0.13445398672413156,
                    1.6338332509514921,
                    2.4944343972742185,
                    -2.338907742847566,
                    -0.5802000667995163,
                    1.4960993145664743,
                    0.4359978219861319,
                    2.7943825606694346,
                    2.700147250943119,
                    -2.4194861924597375,
                    -3.6854609877487445,
                    -4.132407341459485,
                    -0.7514909436123066
                ],
                "bias": 1.6581425939451748,
                "activation_function": "SIGMOID"
            },
            {
                "weights": [
                    0.11828359197370464,
                    -1.2705951478741133,
                    1.0885472529560258,
                    -2.281901552125472,
                    -3.0000694819384632,
                    -1.291445646298611,
                    -2.001748310239884,
                    -1.9011806270398157,
                    -0.11282526342970889,
                    2.1956038891514646,
                    0.10370948482756107,
                    1.4072637803348889,
                    1.6927583694246562,
                    -0.2185092387531418,
                    1.059190661684656,
                    -0.1061285666765962,
                    0.4446659585163514,
                    0.2056872694875859,
                    1.1578426015672085,
                    -0.6205924396785772,
                    -0.5248043089027413,
                    0.27432240182917245,
                    1.0011761322480375,
                    -0.7860700338622277,
                    2.133764430190925,
                    -0.546022608494879,
                    -3.5507829588575732,
                    0.6046049555112435,
                    -0.15368972826552785,
                    -1.5122937735946007,
                    -1.5424819255588538,
                    -0.056732075025524964,
                    0.206236757743065,
                    0.8741450003100298,
                    1.5047969955639438,
                    -0.8973045742096986,
                    0.12748532217870084,
                    0.8645136319053475,
                    -0.6348486418616882,
                    -2.2080937513737284,
                    -2.7249314312771964,
                    0.1757658857735689,
                    3.609681624512338,
                    0.06294458223913621,
                    -1.1695344476191472,
                    -2.2421976553600564,
                    -2.3858470589036798,
                    -1.1571980743591617,
                    2.2729469719359106,
                    -0.9949410199653177,
                    -0.09042598196417401,
                    -0.6943996928467631,
                    -0.9729102412774732,
                    0.7125835225712273,
                    -0.4706239655103164,
                    0.710165766090147,
                    0.2933654568249399,
                    0.48510044597976565,
                    -0.21066364151787867,
                    -0.8250734141202342,
                    2.0451949657118385,
                    0.8331020611016846,
                    -2.6523647582345977,
                    -2.9008905162311853,
                    4.956879538785033,
                    0.9732911058914561,
                    0.7512945032496117
                ],
                "bias": 0.7251536496361506,
                "activation_function": "SIGMOID"
            }
        ],
        [
            {
                "weights": [
                    -1.7911366764766454,
                    -4.422550037908614,
                    1.7194123162982982,
                    2.9360171161833426,
                    6.0684549108488275,
                    -5.408836462354153,
                    0.3098810158745751,
                    -5.646827234002935
                ],
                "bias": 0.3926062637606865,
                "activation_function": "SIGMOID"
            },
            {
                "weights": [
                    -7.493436087799584,
                    5.548228126294919,
                    -6.3614729768219025,
                    0.06596332813294671,
                    -4.3454046994257345,
                    3.3654244348214255,
                    -2.5777577294006346,
                    3.823685917699808
                ],
                "bias": 1.2554920531449973,
                "activation_function": "SIGMOID"
            },
            {
                "weights": [
                    -5.666683779605972,
                    -1.499990846333207,
                    8.963166335920977,
                    4.681768561914055,
                    -1.141387695717856,
                    0.3335000919145948,
                    -2.530774864041814,
                    0.3672742275881777
                ],
                "bias": 1.3434366406736906,
                "activation_function": "SIGMOID"
            },
            {
                "weights": [
                    2.739772229773016,
                    1.3891985399690627,
                    -3.10702401933548,
                    -1.9702299229542424,
                    4.115680202852373,
                    -4.646080401639213,
                    3.0509063521792075,
                    1.1416277218189632
                ],
                "bias": -1.9172306101856778,
                "activation_function": "SIGMOID"
            },
            {
                "weights": [
                    0.7988805084492644,
                    3.818318689703955,
                    -4.260031790003238,
                    -4.435192961760885,
                    3.777329826058047,
                    0.850427406018469,
                    1.473950425968975,
                    -5.337324126539873
                ],
                "bias": -0.21630226051985846,
                "activation_function": "SIGMOID"
            },
            {
                "weights": [
                    0.6636061754032998,
                    -6.424778897389762,
                    -3.9444985011653846,
                    5.11177950685555,
                    -3.480484511826263,
                    -4.847309988596723,
                    -2.6772442364414815,
                    -0.4250916223210009
                ],
                "bias": 1.4533353679702479,
                "activation_function": "SIGMOID"
            },
            {
                "weights": [
                    -6.458229224292247,
                    -5.140908597469319,
                    4.822289364332718,
                    5.495197185801147,
                    3.330946086726277,
                    -3.021455628810516,
                    6.774643683704764,
                    -3.725124906242596
                ],
                "bias": 0.3866375514869955,
                "activation_function": "SIGMOID"
            },
            {
                "weights": [
                    1.5961020435789703,
                    -1.699226502701602,
                    1.2509555398260337,
                    1.6559086116955752,
                    0.25046251587070856,
                    1.5233602859482058,
                    -0.28799185413873507,
                    2.1724893928153346
                ],
                "bias": 1.0992910253123171,
                "activation_function": "SIGMOID"
            }
        ],
        [
            {
                "weights": [
                    6.504493490292345,
                    -6.142165517533544,
                    -3.8114775503409555,
                    2.192615384398799,
                    0.5972526409882389,
                    4.7499854951355385,
                    1.9423247363292218,
                    -1.0052940814317457
                ],
                "bias": -1.0770988576379357,
                "activation_function": "SIGMOID"
            },
            {
                "weights": [
                    -0.2635305150913921,
                    1.7388489580635182,
                    2.3478565964104807,
                    -2.7192428836299443,
                    -4.384937372319555,
                    -5.494528719517519,
                    2.4293516819854157,
                    0.09350725438768669
                ],
                "bias": -1.3290463165824593,
                "activation_function": "SIGMOID"
            },
            {
                "weights": [
                    -2.9893212933100197,
                    0.28599971890851184,
                    -4.283714675261114,
                    9.075533465688098,
                    6.652910004131299,
                    -2.3712860446249096,
                    -5.736552574822621,
                    -1.5523396118466604
                ],
                "bias": 2.7149570796302247,
                "activation_function": "SIGMOID"
            },
            {
                "weights": [
                    1.9180127846289539,
                    -0.5982533624296024,
                    -1.2624750362007877,
                    0.8788295088431285,
                    2.1159117159880863,
                    0.9011477064378344,
                    0.21879764163621515,
                    2.157055617572885
                ],
                "bias": 1.058152252826992,
                "activation_function": "SIGMOID"
            },
            {
                "weights": [
                    -1.245299013900961,
                    2.867348890673363,
                    4.226881739275288,
                    -1.8078729635186583,
                    -3.3432772785988623,
                    -0.03018282864474091,
                    6.275760928868821,
                    0.1975631489775175
                ],
                "bias": -0.9752725120088626,
                "activation_function": "SIGMOID"
            },
            {
                "weights": [
                    -3.866511028362995,
                    0.8213377821795471,
                    -2.490502029443589,
                    -0.05849657316535045,
                    3.854231239491223,
                    -0.9186127934161127,
                    -2.236762992287308,
                    2.9063477991823428
                ],
                "bias": 0.8251776018279579,
                "activation_function": "SIGMOID"
            },
            {
                "weights": [
                    -2.4642762712888233,
                    4.304081686241961,
                    4.123105303707616,
                    1.7273167363673554,
                    1.3863040782903484,
                    -0.20154760428284726,
                    -3.403944722008779,
                    2.009045410545791
                ],
                "bias": 3.676305175421056,
                "activation_function": "SIGMOID"
            },
            {
                "weights": [
                    4.4038098363721225,
                    -8.337064853801323,
                    -5.014379209424602,
                    3.380570259062143,
                    3.2366178223027875,
                    2.9760756178923966,
                    1.4234966729678986,
                    -0.29962479686666177
                ],
                "bias": -1.7731559697470172,
                "activation_function": "SIGMOID"
            }
        ],
        [
            {
                "weights": [
                    0.378720795095789,
                    0.9497665317426356,
                    -0.2122702275099783,
                    0.47311771466349795,
                    1.0961551109614889,
                    0.8113378098421146,
                    0.3408110219651409,
                    1.6071888367910943
                ],
                "bias": 1.7759905495819541,
                "activation_function": "SIGMOID"
            },
            {
                "weights": [
                    4.311050023024757,
                    2.6544886359582556,
                    -5.614310837123415,
                    -0.05282438344583629,
                    2.167157792195713,
                    2.0505254955637584,
                    -1.4647977287804428,
                    5.68606386864386
                ],
                "bias": 0.15454499152478265,
                "activation_function": "SIGMOID"
            },
            {
                "weights": [
                    4.425109636241122,
                    -2.9978775324500213,
                    1.5370688046214838,
                    1.7733886692744578,
                    -4.907730248672369,
                    1.3488281539002323,
                    -3.2989237426339253,
                    4.218964414650625
                ],
                "bias": -1.8838990046496975,
                "activation_function": "SIGMOID"
            },
            {
                "weights": [
                    0.5426002331727553,
                    0.1274481376456878,
                    -0.8081342252166605,
                    0.12222784047575683,
                    3.0941923719269315,
                    0.4443268472418711,
                    1.101029414131107,
                    3.2628916027625476
                ],
                "bias": 0.361615563205967,
                "activation_function": "SIGMOID"
            },
            {
                "weights": [
                    7.3124842437523485,
                    3.937752092957343,
                    -6.882791436875005,
                    -0.585835696033897,
                    2.1308222188949815,
                    2.8188229392307664,
                    -4.238199084325922,
                    4.720038866493151
                ],
                "bias": 0.05757119170898314,
                "activation_function": "SIGMOID"
            },
            {
                "weights": [
                    -2.7781587445886813,
                    4.150401302570421,
                    4.690401814818902,
                    -1.477976516130061,
                    1.9794625985345051,
                    3.525021772576099,
                    2.2286014812622668,
                    -3.1539177638230034
                ],
                "bias": -0.8097809000609318,
                "activation_function": "SIGMOID"
            }
        ],
        [
            {
                "weights": [
                    -3.337568487193431,
                    1.8960452142376676,
                    6.652790461295163,
                    -2.8858717956275726,
                    0.4257218215640556,
                    1.5678350470789262
                ],
                "bias": -4.239166355231983,
                "activation_function": "SIGMOID"
            },
            {
                "weights": [
                    -0.7893107610683313,
                    4.145278913336006,
                    -5.7918923599140495,
                    -3.697566878537472,
                    0.09702129620812609,
                    1.4076224747615254
                ],
                "bias": -1.0884894005801125,
                "activation_function": "SIGMOID"
            },
            {
                "weights": [
                    -1.1668693268537373,
                    2.133711039388486,
                    0.046555989963665736,
                    1.3378748780587983,
                    -1.1564126767033933,
                    -4.656301641844082
                ],
                "bias": -1.0314708635768854,
                "activation_function": "SIGMOID"
            },
            {
                "weights": [
                    1.2253974439607984,
                    -0.37893627266698027,
                    0.06277224179634451,
                    2.4004162907297886,
                    -4.27140035616259,
                    -4.621827814162791
                ],
                "bias": 1.137984402729498,
                "activation_function": "SIGMOID"
            },
            {
                "weights": [
                    -0.9901544117432153,
                    -1.0114780477462626,
                    -5.960024613377551,
                    0.5805275973162021,
                    0.9079495463439772,
                    1.4001861715679573
                ],
                "bias": -0.8246542531615988,
                "activation_function": "SIGMOID"
            },
            {
                "weights": [
                    -2.300434367454358,
                    -3.1923962992275454,
                    6.50003626716181,
                    -1.4140850811518735,
                    1.7102237509914777,
                    1.544137336481896
                ],
                "bias": -2.7031041195201717,
                "activation_function": "SIGMOID"
            }
        ]
    ]
}