{
    "learning_rate": 0.01,
    "layouts": [
        [
            {
                "weights": [
                    2.233720514113276,
                    0.03624790275665534,
                    1.3362891651967899,
                    2.0034629273776416,
                    0.8176017819455466,
                    1.6484456780606067,
                    1.6954449233976443,
                    3.745678486518124,
                    0.27702790486604034,
                    0.890358198689692,
                    -0.3508654561294576,
                    2.118684264015178,
                    -0.5096335118142438,
                    2.154287187890529,
                    0.9639522858868074,
                    1.445551206702105,
                    -0.012062793921350087,
                    -2.081984475470277,
                    1.3039876502366488,
                    0.459394627026804,
                    3.3755430545018767,
                    3.1323798210472873,
                    -0.08951979036587207,
                    2.1096736795134436,
                    0.7021693929280327,
                    2.4960883244501613,
                    -1.4047005141612523,
                    -0.4365620745440372,
                    1.2596017152383234,
                    0.9887310674507567,
                    -0.37583324834856185,
                    0.2779485918116937,
                    1.6265106795887867,
                    1.3431605267664446,
                    -0.4380663569065529,
                    0.7363489845523243,
                    0.6572568051449821,
                    1.778913539272726,
                    1.6990062288433796,
                    0.36829486117966104,
                    0.040396865549274484,
                    -1.3988624668904006,
                    -1.6451170919154456,
                    0.26803155252931776,
                    1.073708949165999,
                    0.8659329740753956,
                    0.277568526749318,
                    0.602600143874435,
                    -2.8932625364984705,
                    0.6810133238523027,
                    -0.49918549611171736,
                    0.8369512308072938,
                    0.38912935922451597,
                    0.193266073397167,
                    2.4127069542593196,
                    1.9215094369422165,
                    2.8316206997243145,
                    1.2782799157983764,
                    0.6617610624060981,
                    1.3495926831968341,
                    0.7837984946145944,
                    0.39254414460348974,
                    1.7019478624600417,
                    2.981010281091088,
                    -30.894599304583465,
                    0.33624376074154966,
                    0.06885824713490944
                ],
                "bias": 6.112609893155405,
                "activation_function": "SIGMOID"
            },
            {
                "weights": [
                    0.20887374217838303,
                    2.904593173068941,
                    2.0617684838107464,
                    1.4709062253542524,
                    1.5712813657469658,
                    3.036115661445758,
                    0.7064947808811677,
                    0.43647911058062416,
                    0.7564109166187674,
                    2.6000230460907408,
                    4.524165455067769,
                    0.2688927371223346,
                    4.272912969128841,
                    3.371276875877435,
                    -2.8987491941989636,
                    -0.9343411800013821,
                    5.160473950550627,
                    1.9313656396286352,
                    4.96515400913602,
                    1.71843188491146,
                    0.3499593209402345,
                    0.3272900217513398,
                    0.6283850166003732,
                    1.12523210069356,
                    2.6876226472351883,
                    -3.361273007547753,
                    -2.502294129631181,
                    1.1936383770736632,
                    -3.2100985068636883,
                    0.7969255086554019,
                    -0.0583719554378913,
                    0.026390690253493304,
                    2.7934545604587364,
                    -0.7588591337294984,
                    -0.7202149937852715,
                    1.6311093726289418,
                    1.8656314775031217,
                    3.1008231885555078,
                    1.0354073077802521,
                    -0.5076988739524357,
                    -0.8184919215300243,
                    0.7863972165493642,
                    -2.903869013135921,
                    3.0986896480332673,
                    -1.4513605346380365,
                    -1.9340788625915435,
                    -4.663700768339157,
                    4.536054039952426,
                    -1.3171715942939615,
                    2.4187011477074916,
                    -1.4257943501541555,
                    -1.0507084971843783,
                    -3.147106700003193,
                    -0.24065693713482567,
                    -4.453503038847416,
                    -2.932487931862654,
                    3.242852394122695,
                    -4.623952267768645,
                    2.309117291735688,
                    1.10906752908274,
                    -0.20037854022405785,
                    0.5851165081483666,
                    -1.774931285550143,
                    5.325742036736845,
                    8.80332113838811,
                    0.6070989740565345,
                    -1.428601711387789
                ],
                "bias": -2.2836918133566884,
                "activation_function": "SIGMOID"
            },
            {
                "weights": [
                    -1.2263946076376033,
                    -2.0067684138454487,
                    -0.6509707710089613,
                    1.1267362966662402,
                    -0.9517417391027259,
                    2.7528115193656144,
                    -2.8488614833455905,
                    -0.4128808140402261,
                    -0.11059459827960536,
                    -0.8382483048020868,
                    0.3935887581338986,
                    0.5652346856261574,
                    -0.8905397782952734,
                    0.37088690859920037,
                    -3.6822939989765784,
                    -2.7316499213436125,
                    0.8719154617255898,
                    -2.567114929623445,
                    2.280688806269773,
                    -0.06363793222355789,
                    1.4275015106962925,
                    -1.970889447177015,
                    0.5633649071103144,
                    1.088824899577358,
                    1.1243599180397754,
                    0.1723579409679166,
                    -0.47536902821152405,
                    1.324132938529008,
                    -3.62529481801044,
                    -0.6922829077600803,
                    -3.755639158049226,
                    -0.23293442629959638,
                    1.339949802000019,
                    -0.7708754330000284,
                    1.9554421232376624,
                    -0.027944221814163624,
                    -0.372936076993166,
                    -0.006616430353152093,
                    -1.7431884073269661,
                    1.4213025222185192,
                    0.3204724872588714,
                    -0.38561739884028134,
                    0.5343351612406659,
                    -1.053866280738868,
                    1.2314297943174422,
                    2.4457917313719113,
                    -3.203718552320548,
                    -0.7677511248086738,
                    0.5648212815490269,
                    1.0932583103814066,
                    -1.6610047249021653,
                    -2.514049670183385,
                    -1.9144495334802045,
                    0.15703595254563224,
                    -1.4932624188986128,
                    -2.219025176392055,
                    2.1024039659481613,
                    -0.0092946038410593,
                    -1.7512477998643992,
                    0.2408138682829992,
                    0.5092682478276659,
                    -0.4648967854121204,
                    -2.1889709605169494,
                    -1.8197471774780505,
                    6.141909356343619,
                    0.2218607013512093,
                    -0.938571670863002
                ],
                "bias": -0.21725530972281698,
                "activation_function": "SIGMOID"
            },
            {
                "weights": [
                    4.172165326366514,
                    -1.9503775257370703,
                    -0.3954955770901638,
                    -1.0112522303355371,
                    -0.7876314455667307,
                    -2.4450313452772687,
                    -2.398836670715436,
                    -0.9106642648275908,
                    -2.1298099058299624,
                    -1.1899243695847714,
                    0.5578188471553581,
                    2.297417475222732,
                    -1.9746232204986507,
                    -2.9142121845263644,
                    -3.6551542442303457,
                    -2.0615248567749673,
                    -1.555661931000726,
                    -3.08000971512661,
                    0.9393390805101431,
                    3.4942375531460845,
                    0.8756466897920765,
                    -1.134628510920319,
                    -0.6174075565804985,
                    0.1595006272596508,
                    -0.3414465143903773,
                    2.301449872676541,
                    -1.394406084503813,
                    0.9150121444256661,
                    4.118346442594642,
                    0.6822999265956253,
                    -0.10129512877057806,
                    -1.8346029673647595,
                    3.685723901234605,
                    0.5504957284262172,
                    0.21867743127642325,
                    0.6349205400961973,
                    -1.3640810533918348,
                    -0.18549738665605425,
                    -1.1205368460267646,
                    -3.2165472814856253,
                    -1.803281409615957,
                    -0.09122302276280486,
                    -0.32284377879107434,
                    -0.8655820013848087,
                    0.6815953525189442,
                    -0.23048201554122522,
                    -1.590571300094526,
                    -3.619583943670294,
                    2.8670453499250645,
                    -0.5290042180616746,
                    1.5855071882148817,
                    -0.22611993395705648,
                    3.911224530907327,
                    -3.745097431648846,
                    -3.135146414135728,
                    -0.6772846509495947,
                    -0.8343438363543496,
                    -0.8661782531385681,
                    0.9027985926659802,
                    2.4847237310281383,
                    0.31880932062459955,
                    -2.6197542262582334,
                    -1.4331704844887274,
                    -0.12947887634610358,
                    3.4759001006695467,
                    -0.6371644335838809,
                    0.9825930670932919
                ],
                "bias": -0.4121793290322402,
                "activation_function": "SIGMOID"
            },
            {
                "weights": [
                    -1.6896986525819317,
                    -2.4980901588204634,
                    0.3847060524105066,
                    -0.4770947140761581,
                    -0.9090069918335173,
                    2.182387855638383,
                    -0.7890106391389474,
                    -0.19844101807284012,
                    -0.6702263079169992,
                    0.774032855750129,
                    0.216603083852848,
                    1.7843195110345147,
                    2.492930666367802,
                    3.7245948614858357,
                    -2.4403656877992295,
                    4.316731318311941,
                    0.37040327851530813,
                    2.1626492643367583,
                    1.2117823436605015,
                    0.2561438824266369,
                    -0.06842987986412642,
                    1.614019730776867,
                    1.2226232491262974,
                    0.2513073346644678,
                    1.2171527194978435,
                    0.0861611873457937,
                    -1.0361662528624778,
                    1.337033204416638,
                    0.9249085334755328,
                    0.5194499956485961,
                    1.403251750577051,
                    0.061224131448419074,
                    -2.9762478448370477,
                    -1.427835182518589,
                    1.3947789806124566,
                    0.8884359714299876,
                    3.132347808804691,
                    2.183318811875473,
                    0.10853185441917163,
                    -2.484012311005973,
                    -0.25130804804763196,
                    0.9298881976408616,
                    -0.24878024958157488,
                    1.277380832786551,
                    -0.0787280820306003,
                    -0.7394107346084556,
                    0.4630269120743145,
                    -1.782593010746158,
                    -1.8045984390844472,
                    1.2673751940262366,
                    1.1971903361784157,
                    -0.3450510059924009,
                    -1.882202104901211,
                    1.6550576447119878,
                    -1.649857977511469,
                    -1.524886754101263,
                    -0.6366247398189687,
                    -0.8121519363572001,
                    -0.5974449412225125,
                    -1.186990507967928,
                    -1.9152659070706406,
                    0.06635290748149726,
                    0.30445398103900767,
                    0.579905752831282,
                    -8.991386835459803,
                    -0.49159064842328953,
                    1.0077165062528037
                ],
                "bias": 1.414456856427156,
                "activation_function": "SIGMOID"
            },
            {
                "weights": [
                    1.8659334591484098,
                    2.056359064912078,
                    0.8187702372016109,
                    2.967583169344319,
                    -1.69969905523593,
                    1.0627899234087956,
                    -1.858494699089764,
                    1.2671101516866026,
                    3.29228341274651,
                    0.7157726335181911,
                    1.022172672709358,
                    0.16177992733749483,
                    1.6064347421365919,
                    -0.00047000511777797694,
                    -0.005743715825484686,
                    1.2792095655704254,
                    -0.6909628549016648,
                    -1.2685900363439098,
                    -3.2715210692742134,
                    -2.4789942253760464,
                    -2.3211438505895168,
                    1.592260029026039,
                    -1.5503064526515666,
                    1.8147863185165245,
                    2.0846211214639503,
                    2.414005457933606,
                    -0.21109716674045273,
                    -0.09922151095783609,
                    0.8814478391397544,
                    -2.7384543243239206,
                    -1.8701813854999474,
                    -0.6463398245434592,
                    -0.4115474926813723,
                    0.27753764468178105,
                    -0.9222671185184543,
                    1.3993554987853758,
                    1.3067422332239058,
                    -1.225933812369611,
                    -1.9198816775515861,
                    -2.2692090287456237,
                    -0.3323707258228737,
                    -0.18790930799206937,
                    0.9228398393968489,
                    -0.9550259424444136,
                    0.7435050977583806,
                    2.222768831536378,
                    1.5586347713308535,
                    0.7900177327199853,
                    1.7605795854517274,
                    -2.6454013012977247,
                    0.8947955693127673,
                    -1.0751531153372256,
                    -1.0786828722016524,
                    -2.6812353968997087,
                    -2.5471134393994097,
                    -2.2232724581139376,
                    -1.5500863102599594,
                    -1.939997395303909,
                    1.0805719535161782,
                    0.3614114359683685,
                    -0.8945719563230656,
                    1.99573293118306,
                    1.7849076159927724,
                    0.7854195145343322,
                    5.61316813549212,
                    0.3043349575133648,
                    -0.7272625752317458
                ],
                "bias": 0.7989461803561636,
                "activation_function": "SIGMOID"
            },
            {
                "weights": [
                    1.7448082966135106,
                    0.5354277741595027,
                    -1.1901041666195706,
                    -2.8545461082138686,
                    -0.6871145605917878,
                    0.4228368922953352,
                    0.3221579635776167,
                    1.437476063743509,
                    0.5850006316235492,
                    -3.065633179199804,
                    -2.082684097286287,
                    -3.0074213956586413,
                    3.373447221041967,
                    -2.37930917819836,
                    -0.07666032521648998,
                    2.834920020129399,
                    -0.28895779247682873,
                    -1.8569917739079145,
                    -3.3788641515644815,
                    1.569792391222013,
                    0.9815900865121028,
                    2.1591190852020796,
                    -1.1997133341431387,
                    -3.5044681801324753,
                    1.7641182843171566,
                    -1.4648765196794964,
                    -3.3440794864690053,
                    1.488020787812547,
                    1.6681089265673055,
                    -2.86001778262623,
                    -1.38884662722965,
                    -0.38390251327646646,
                    1.412360111033834,
                    0.6871611324854278,
                    1.7138744237339776,
                    0.060521728446225415,
                    -0.4954502140049665,
                    -0.9110648421767841,
                    -0.1439533960147044,
                    -0.5931267626798774,
                    -3.209249463345176,
                    2.2594244222496616,
                    2.1263692165521872,
                    -0.10918321924842858,
                    -4.279159639113155,
                    -1.120303883043201,
                    -1.7055204858770168,
                    2.35124286301618,
                    -1.6903960104555402,
                    -1.8820913131217678,
                    5.124154895080888,
                    2.3530210461335868,
                    -2.83843399345564,
                    0.20685583204913352,
                    0.17349073728333889,
                    1.644554351748157,
                    2.3092280304129282,
                    -2.4461665202672807,
                    -0.19582729133008797,
                    1.6018030447210434,
                    0.3708029607190005,
                    2.5966372954569805,
                    2.570196091502219,
                    -2.494310911197292,
                    -3.7264211882962934,
                    -4.0000553754302555,
                    -1.082710560176481
                ],
                "bias": 1.6316982177201353,
                "activation_function": "SIGMOID"
            },
            {
                "weights": [
                    0.09179321194797119,
                    -1.2430421127430424,
                    1.0990339291553939,
                    -2.2531371758392513,
                    -2.9046162404757307,
                    -1.272253707002296,
                    -2.0026338213200745,
                    -1.9333057675692649,
                    -0.12267980271330561,
                    2.1577836726184,
                    0.09366864065472809,
                    1.409949140871958,
                    1.713915783948854,
                    -0.20856600279626514,
                    1.066989109583662,
                    -0.1019701736854399,
                    0.4652794748458055,
                    0.18698081367246763,
                    1.1111297809137684,
                    -0.5400587713573631,
                    -0.5481195231769935,
                    0.16987891043683837,
                    0.9796594165892071,
                    -0.8650463722878075,
                    2.0988462782186157,
                    -0.5507455337513082,
                    -3.713074482456357,
                    0.48267523300185317,
                    -0.21411433516260286,
                    -1.4713368841753172,
                    -1.3760523446547093,
                    -0.03248313817116964,
                    0.23306471922805494,
                    0.8868306498292965,
                    1.5240064139393192,
                    -0.9060240572365197,
                    0.13218501321723758,
                    0.8442103480021013,
                    -0.7105976425781465,
                    -2.207775754983962,
                    -2.7117374352725556,
                    0.15560047623919768,
                    3.4907369799574575,
                    0.13931146082475462,
                    -1.3361198647151418,
                    -2.082764947941997,
                    -2.4174226798778014,
                    -1.2806095728514868,
                    2.241266163416048,
                    -1.0527643457731752,
                    -0.10234857120153107,
                    -0.5241478340060769,
                    -1.115206510657849,
                    0.7447977046063615,
                    -0.35561467073268993,
                    0.748248290952112,
                    0.33452548337707455,
                    0.5167545451877902,
                    -0.11214695425136591,
                    -0.8577285742855035,
                    2.0333638482889596,
                    0.8088175702879989,
                    -2.5281460090435655,
                    -2.964112785541232,
                    4.93684555250383,
                    0.9811934081988355,
                    0.7230928398868437
                ],
                "bias": 0.7362333624882891,
                "activation_function": "SIGMOID"
            }
        ],
        [
            {
                "weights": [
                    -1.5980988966245329,
                    -3.9879905009587833,
                    1.5279783228967792,
                    3.5365741841524634,
                    6.0631246452166225,
                    -4.348426273249854,
                    0.6776653730954103,
                    -5.980794175385113
                ],
                "bias": 0.4121182498600264,
                "activation_function": "SIGMOID"
            },
            {
                "weights": [
                    -6.934466177080481,
                    5.1487826045153575,
                    -5.328721304083335,
                    -0.12105126879728378,
                    -3.954315968273371,
                    3.5467082102689584,
                    -2.3821823426143838,
                    3.7073685991559104
                ],
                "bias": 0.9150995853187618,
                "activation_function": "SIGMOID"
            },
            {
                "weights": [
                    -5.056592650349784,
                    -1.641059119812152,
                    8.866524383580336,
                    4.7737332432254584,
                    -0.8499596089925249,
                    -0.3910957101104112,
                    -3.2285034756999598,
                    0.46711203139329516
                ],
                "bias": 0.8997674308679063,
                "activation_function": "SIGMOID"
            },
            {
                "weights": [
                    3.6215529203481363,
                    1.774003978577981,
                    -3.617312631567611,
                    -1.4668481535201805,
                    3.035754864298475,
                    -4.570177942818781,
                    3.5995187588875304,
                    0.7869206755650304
                ],
                "bias": -1.910865656302078,
                "activation_function": "SIGMOID"
            },
            {
                "weights": [
                    1.1087452647389355,
                    3.355903593668579,
                    -3.731437970138995,
                    -4.105990980514561,
                    3.8710039611649814,
                    0.06156845738448331,
                    1.440176952083335,
                    -4.449125153289125
                ],
                "bias": 0.018755797527584363,
                "activation_function": "SIGMOID"
            },
            {
                "weights": [
                    -0.3166955087770316,
                    -6.201013304022487,
                    -2.6284568850316954,
                    5.174527408928973,
                    -3.4219981091114247,
                    -4.486331197703281,
                    -2.732734420250514,
                    -0.6476468593212822
                ],
                "bias": 1.306941460926569,
                "activation_function": "SIGMOID"
            },
            {
                "weights": [
                    -5.8605000447422295,
                    -4.617291508169841,
                    4.636447326519277,
                    5.38738760425129,
                    2.8699457516025673,
                    -3.296729607025885,
                    6.375772777376183,
                    -3.017702166807191
                ],
                "bias": -0.15401768141362268,
                "activation_function": "SIGMOID"
            },
            {
                "weights": [
                    1.511507881324507,
                    -1.6890146783122146,
                    1.2416201284315485,
                    1.6075073380293223,
                    0.1971657128552576,
                    1.5555830122491,
                    -0.31034484848014193,
                    2.1683586162547623
                ],
                "bias": 1.0131890123375638,
                "activation_function": "SIGMOID"
            }
        ],
        [
            {
                "weights": [
                    6.230621741044341,
                    -6.338252733784052,
                    -3.965652919513467,
                    2.0252999117073274,
                    0.619043552853654,
                    4.217305449435749,
                    2.110853777304832,
                    -0.9056862831564261
                ],
                "bias": -0.9463153390915342,
                "activation_function": "SIGMOID"
            },
            {
                "weights": [
                    -0.3073859780448355,
                    1.6034078697114083,
                    2.4078811557978645,
                    -2.215772211021036,
                    -3.8088061830426225,
                    -5.145711959650358,
                    2.2846326798339676,
                    -0.07983413021821002
                ],
                "bias": -1.53407647802594,
                "activation_function": "SIGMOID"
            },
            {
                "weights": [
                    -3.1425297784454482,
                    0.36168549954912416,
                    -4.243237039283298,
                    8.869219682507858,
                    6.284398823485598,
                    -2.944688305587419,
                    -4.877234068940726,
                    -1.8107676401419168
                ],
                "bias": 2.4610194829178322,
                "activation_function": "SIGMOID"
            },
            {
                "weights": [
                    1.9334451092846197,
                    -0.6525941822753565,
                    -1.2399164215856018,
                    0.8836461450803488,
                    2.090195558874897,
                    0.9208279134950565,
                    0.21340468242498853,
                    2.1999017863972847
                ],
                "bias": 1.1011486604503884,
                "activation_function": "SIGMOID"
            },
            {
                "weights": [
                    -0.9109320699446662,
                    2.9961406163331907,
                    3.7165585487367805,
                    -1.6882494807817263,
                    -3.6021201736025543,
                    0.3086253364236689,
                    5.034341412749769,
                    0.1437410065811515
                ],
                "bias": -1.037960680686377,
                "activation_function": "SIGMOID"
            },
            {
                "weights": [
                    -3.4751784613723773,
                    0.9606224470353977,
                    -2.0373827439061998,
                    0.06054901903909973,
                    2.8079266489766264,
                    -0.6682800158391229,
                    -2.7485078538577246,
                    3.012065786945151
                ],
                "bias": 0.9176376518848872,
                "activation_function": "SIGMOID"
            },
            {
                "weights": [
                    -2.630820209354194,
                    4.31932030324303,
                    4.032937438627152,
                    1.66827634835252,
                    1.3209854610767255,
                    -0.2520334273076486,
                    -3.5387444935815653,
                    1.8541096837436652
                ],
                "bias": 3.5189598785673057,
                "activation_function": "SIGMOID"
            },
            {
                "weights": [
                    4.267869045847205,
                    -7.430664237987808,
                    -4.962566776758731,
                    2.881738092525061,
                    3.0015294894216034,
                    2.416851702322884,
                    1.46203631441603,
                    0.09432872273284701
                ],
                "bias": -1.370877626968295,
                "activation_function": "SIGMOID"
            }
        ],
        [
            {
                "weights": [
                    0.4636837985068321,
                    0.924336171471582,
                    -0.24785837897789878,
                    0.49897747678719984,
                    1.180368646501497,
                    0.6906226417146851,
                    0.35752312844587225,
                    1.6059257412950982
                ],
                "bias": 1.7961405236488504,
                "activation_function": "SIGMOID"
            },
            {
                "weights": [
                    4.108892745495881,
                    2.3747132008836322,
                    -5.354068264127305,
                    -0.11966414270761129,
                    2.141275742027645,
                    1.839345661298682,
                    -1.6013173348929375,
                    5.223343679432918
                ],
                "bias": 0.034390362917639986,
                "activation_function": "SIGMOID"
            },
            {
                "weights": [
                    4.2253399210703035,
                    -2.8949100257651783,
                    1.725461783022495,
                    1.6302464305256203,
                    -4.401224824860286,
                    1.5615380255195208,
                    -3.421213860509504,
                    4.226267762045982
                ],
                "bias": -2.010156430852662,
                "activation_function": "SIGMOID"
            },
            {
                "weights": [
                    0.6678884768297513,
                    0.19952719121464485,
                    -1.2001687410619648,
                    -0.06788237447694226,
                    3.1345610054974706,
                    0.14519127296079443,
                    0.9716051253334751,
                    3.23410290975299
                ],
                "bias": 0.23114600369234614,
                "activation_function": "SIGMOID"
            },
            {
                "weights": [
                    7.082747250591061,
                    4.203130387962037,
                    -6.605426952657887,
                    -0.650386203744971,
                    1.8120121114615988,
                    2.734824445510065,
                    -4.256653452186936,
                    5.096639649152193
                ],
                "bias": 0.018654787511533592,
                "activation_function": "SIGMOID"
            },
            {
                "weights": [
                    -2.4875316366575224,
                    2.741409441349128,
                    5.016364953574662,
                    -1.3964531124494959,
                    1.6668860034184385,
                    2.615861433984458,
                    2.392859551730478,
                    -2.709089523239901
                ],
                "bias": -0.747375587700086,
                "activation_function": "SIGMOID"
            }
        ],
        [
            {
                "weights": [
                    -3.0402188619754775,
                    1.6888179179813174,
                    5.987757365270358,
                    -2.625010170658469,
                    0.6412985658431101,
                    1.3894465684549915
                ],
                "bias": -3.927484173492825,
                "activation_function": "SIGMOID"
            },
            {
                "weights": [
                    -0.6812407498080482,
                    3.610325921792092,
                    -5.306797780915129,
                    -3.614547181707761,
                    0.28373545502533803,
                    1.4751306512456732
                ],
                "bias": -1.0317683413353256,
                "activation_function": "SIGMOID"
            },
            {
                "weights": [
                    -1.1835018647767028,
                    2.1618433913310624,
                    -0.0750866959309482,
                    1.3017785857712512,
                    -0.9957479817639878,
                    -4.351810577784423
                ],
                "bias": -1.0606440133808066,
                "activation_function": "SIGMOID"
            },
            {
                "weights": [
                    1.085246959785667,
                    -0.08858483689574363,
                    -0.08391641858733602,
                    2.414609162800192,
                    -4.222332389580944,
                    -4.401847469694874
                ],
                "bias": 1.0406646317836112,
                "activation_function": "SIGMOID"
            },
            {
                "weights": [
                    -0.9339893845063632,
                    -1.457342136982418,
                    -5.709876659647052,
                    0.49326534413539974,
                    1.2570337308220787,
                    1.4259453757013862
                ],
                "bias": -0.737216011515702,
                "activation_function": "SIGMOID"
            },
            {
                "weights": [
                    -2.449525347707282,
                    -2.645841649055218,
                    6.3612139325256996,
                    -1.5432681787379643,
                    1.9218791190914024,
                    1.3740889751440286
                ],
                "bias": -2.8657113297870693,
                "activation_function": "SIGMOID"
            }
        ]
    ]
}